<?xml version="1.0"?>
<opencv_storage>
<fin_2 type_id="opencv-haar-classifier">
  <size>
    20 20</size>
  <stages>
    <_>
      <trees>
        <_>
          <_>
            <feature>
              <rects>
                <_>
                  2 0 15 2 -1.</_>
                <_>
                  2 1 15 1 2.</_></rects>
              <tilted>0</tilted></feature>
            <threshold>7.5381307397037745e-005</threshold>
            <left_val>-0.3934539854526520</left_val>
            <right_node>1</right_node></_>
          <_>
            <feature>
              <rects>
                <_>
                  0 8 14 12 -1.</_>
                <_>
                  0 14 14 6 2.</_></rects>
              <tilted>0</tilted></feature>
            <threshold>0.0351826883852482</threshold>
            <left_val>0.3856446146965027</left_val>
            <right_val>-0.4851618111133575</right_val></_></_>
        <_>
          <_>
            <feature>
              <rects>
                <_>
                  2 8 16 9 -1.</_>
                <_>
                  6 8 8 9 2.</_></rects>
              <tilted>0</tilted></feature>
            <threshold>0.1547362953424454</threshold>
            <left_node>1</left_node>
            <right_val>0.6186432838439941</right_val></_>
          <_>
            <feature>
              <rects>
                <_>
                  5 7 12 4 -1.</_>
                <_>
                  9 7 4 4 3.</_></rects>
              <tilted>0</tilted></feature>
            <threshold>-0.0287039503455162</threshold>
            <left_val>0.2880676984786987</left_val>
            <right_val>-0.4176538884639740</right_val></_></_>
        <_>
          <_>
            <feature>
              <rects>
                <_>
                  9 2 5 18 -1.</_>
                <_>
                  9 11 5 9 2.</_></rects>
              <tilted>0</tilted></feature>
            <threshold>-0.0237360391765833</threshold>
            <left_val>0.2029390037059784</left_val>
            <right_node>1</right_node></_>
          <_>
            <feature>
              <rects>
                <_>
                  10 5 4 5 -1.</_>
                <_>
                  12 5 2 5 2.</_></rects>
              <tilted>0</tilted></feature>
            <threshold>-0.0191675703972578</threshold>
            <left_val>0.5084074735641480</left_val>
            <right_val>-0.7767906188964844</right_val></_></_>
        <_>
          <_>
            <feature>
              <rects>
                <_>
                  11 18 8 2 -1.</_>
                <_>
                  11 19 8 1 2.</_></rects>
              <tilted>0</tilted></feature>
            <threshold>4.1207191534340382e-003</threshold>
            <left_node>1</left_node>
            <right_val>-0.5745353102684021</right_val></_>
          <_>
            <feature>
              <rects>
                <_>
                  3 16 1 4 -1.</_>
                <_>
                  3 18 1 2 2.</_></rects>
              <tilted>0</tilted></feature>
            <threshold>5.5053289543138817e-005</threshold>
            <left_val>0.2999593019485474</left_val>
            <right_val>-0.2542394995689392</right_val></_></_>
        <_>
          <_>
            <feature>
              <rects>
                <_>
                  6 9 5 4 -1.</_>
                <_>
                  6 10 5 2 2.</_></rects>
              <tilted>0</tilted></feature>
            <threshold>9.7817992791533470e-003</threshold>
            <left_node>1</left_node>
            <right_val>0.4825848042964935</right_val></_>
          <_>
            <feature>
              <rects>
                <_>
                  11 5 8 8 -1.</_>
                <_>
                  15 5 4 8 2.</_></rects>
              <tilted>0</tilted></feature>
            <threshold>0.0700963586568832</threshold>
            <left_val>-0.2986904084682465</left_val>
            <right_val>0.4616745114326477</right_val></_></_>
        <_>
          <_>
            <feature>
              <rects>
                <_>
                  7 6 6 4 -1.</_>
                <_>
                  9 8 2 4 3.</_></rects>
              <tilted>1</tilted></feature>
            <threshold>-0.0450946800410748</threshold>
            <left_val>0.5597519278526306</left_val>
            <right_node>1</right_node></_>
          <_>
            <feature>
              <rects>
                <_>
                  10 13 4 4 -1.</_>
                <_>
                  10 13 2 2 2.</_>
                <_>
                  12 15 2 2 2.</_></rects>
              <tilted>0</tilted></feature>
            <threshold>-1.5977659495547414e-003</threshold>
            <left_val>0.1588907986879349</left_val>
            <right_val>-0.4123930037021637</right_val></_></_>
        <_>
          <_>
            <feature>
              <rects>
                <_>
                  10 17 10 3 -1.</_>
                <_>
                  15 17 5 3 2.</_></rects>
              <tilted>0</tilted></feature>
            <threshold>-0.0405710004270077</threshold>
            <left_val>0.5648832917213440</left_val>
            <right_node>1</right_node></_>
          <_>
            <feature>
              <rects>
                <_>
                  16 3 4 9 -1.</_>
                <_>
                  17 3 2 9 2.</_></rects>
              <tilted>0</tilted></feature>
            <threshold>8.9147295802831650e-003</threshold>
            <left_val>0.0126815401017666</left_val>
            <right_val>-0.7365152835845947</right_val></_></_></trees>
      <stage_threshold>-0.8712428212165833</stage_threshold>
      <parent>-1</parent>
      <next>-1</next></_>
    <_>
      <trees>
        <_>
          <_>
            <feature>
              <rects>
                <_>
                  0 14 20 3 -1.</_>
                <_>
                  5 14 10 3 2.</_></rects>
              <tilted>0</tilted></feature>
            <threshold>0.1112591996788979</threshold>
            <left_node>1</left_node>
            <right_val>0.7425677180290222</right_val></_>
          <_>
            <feature>
              <rects>
                <_>
                  0 7 12 12 -1.</_>
                <_>
                  6 7 6 12 2.</_></rects>
              <tilted>0</tilted></feature>
            <threshold>-0.1507871001958847</threshold>
            <left_val>0.4587193131446838</left_val>
            <right_val>-0.2528409063816071</right_val></_></_>
        <_>
          <_>
            <feature>
              <rects>
                <_>
                  2 16 2 2 -1.</_>
                <_>
                  2 16 2 1 2.</_></rects>
              <tilted>1</tilted></feature>
            <threshold>-1.7785659292712808e-004</threshold>
            <left_val>-0.4128560125827789</left_val>
            <right_node>1</right_node></_>
          <_>
            <feature>
              <rects>
                <_>
                  5 15 12 3 -1.</_>
                <_>
                  5 16 12 1 3.</_></rects>
              <tilted>0</tilted></feature>
            <threshold>-0.0168487001210451</threshold>
            <left_val>-1.</left_val>
            <right_val>0.2254654020071030</right_val></_></_>
        <_>
          <_>
            <feature>
              <rects>
                <_>
                  11 2 3 10 -1.</_>
                <_>
                  11 2 3 5 2.</_></rects>
              <tilted>1</tilted></feature>
            <threshold>-0.0883012413978577</threshold>
            <left_val>-0.8855804204940796</left_val>
            <right_node>1</right_node></_>
          <_>
            <feature>
              <rects>
                <_>
                  15 12 2 4 -1.</_>
                <_>
                  15 14 2 2 2.</_></rects>
              <tilted>0</tilted></feature>
            <threshold>-1.4283210039138794e-003</threshold>
            <left_val>0.3001470863819122</left_val>
            <right_val>-0.2021801024675369</right_val></_></_>
        <_>
          <_>
            <feature>
              <rects>
                <_>
                  9 0 8 15 -1.</_>
                <_>
                  13 0 4 15 2.</_></rects>
              <tilted>0</tilted></feature>
            <threshold>-0.0991565063595772</threshold>
            <left_val>0.4495151937007904</left_val>
            <right_node>1</right_node></_>
          <_>
            <feature>
              <rects>
                <_>
                  6 3 9 15 -1.</_>
                <_>
                  9 3 3 15 3.</_></rects>
              <tilted>0</tilted></feature>
            <threshold>-0.0549465604126453</threshold>
            <left_val>0.2094365954399109</left_val>
            <right_val>-0.3972932100296021</right_val></_></_>
        <_>
          <_>
            <feature>
              <rects>
                <_>
                  8 9 1 3 -1.</_>
                <_>
                  8 10 1 1 3.</_></rects>
              <tilted>0</tilted></feature>
            <threshold>9.3371252296492457e-004</threshold>
            <left_node>1</left_node>
            <right_val>0.2979049980640411</right_val></_>
          <_>
            <feature>
              <rects>
                <_>
                  4 10 14 2 -1.</_>
                <_>
                  4 11 14 1 2.</_></rects>
              <tilted>0</tilted></feature>
            <threshold>-4.0444931946694851e-003</threshold>
            <left_val>0.1466235965490341</left_val>
            <right_val>-0.4388661086559296</right_val></_></_>
        <_>
          <_>
            <feature>
              <rects>
                <_>
                  7 17 7 3 -1.</_>
                <_>
                  7 18 7 1 3.</_></rects>
              <tilted>0</tilted></feature>
            <threshold>0.0121064297854900</threshold>
            <left_node>1</left_node>
            <right_val>-0.8481863737106323</right_val></_>
          <_>
            <feature>
              <rects>
                <_>
                  19 1 1 2 -1.</_>
                <_>
                  19 1 1 1 2.</_></rects>
              <tilted>1</tilted></feature>
            <threshold>6.5508647821843624e-005</threshold>
            <left_val>0.2722701132297516</left_val>
            <right_val>-0.2567721903324127</right_val></_></_>
        <_>
          <_>
            <feature>
              <rects>
                <_>
                  6 0 8 10 -1.</_>
                <_>
                  8 0 4 10 2.</_></rects>
              <tilted>0</tilted></feature>
            <threshold>0.0113084902986884</threshold>
            <left_node>1</left_node>
            <right_val>0.2659105956554413</right_val></_>
          <_>
            <feature>
              <rects>
                <_>
                  5 2 6 12 -1.</_>
                <_>
                  5 8 6 6 2.</_></rects>
              <tilted>0</tilted></feature>
            <threshold>-0.0341791696846485</threshold>
            <left_val>0.0393893793225288</left_val>
            <right_val>-0.6199737787246704</right_val></_></_>
        <_>
          <_>
            <feature>
              <rects>
                <_>
                  13 15 2 2 -1.</_>
                <_>
                  13 16 2 1 2.</_></rects>
              <tilted>0</tilted></feature>
            <threshold>-1.0236359667032957e-003</threshold>
            <left_val>0.3129307925701141</left_val>
            <right_node>1</right_node></_>
          <_>
            <feature>
              <rects>
                <_>
                  9 3 6 6 -1.</_>
                <_>
                  9 3 6 3 2.</_></rects>
              <tilted>1</tilted></feature>
            <threshold>0.0497933290898800</threshold>
            <left_val>-0.0595540218055248</left_val>
            <right_val>-0.7445787787437439</right_val></_></_>
        <_>
          <_>
            <feature>
              <rects>
                <_>
                  0 18 3 2 -1.</_>
                <_>
                  0 19 3 1 2.</_></rects>
              <tilted>0</tilted></feature>
            <threshold>1.5473240055143833e-003</threshold>
            <left_node>1</left_node>
            <right_val>-0.5688961744308472</right_val></_>
          <_>
            <feature>
              <rects>
                <_>
                  13 10 7 4 -1.</_>
                <_>
                  13 11 7 2 2.</_></rects>
              <tilted>0</tilted></feature>
            <threshold>-0.0145705202594399</threshold>
            <left_val>-0.9577919244766235</left_val>
            <right_val>0.1683430969715118</right_val></_></_></trees>
      <stage_threshold>-0.8952829837799072</stage_threshold>
      <parent>0</parent>
      <next>-1</next></_>
    <_>
      <trees>
        <_>
          <_>
            <feature>
              <rects>
                <_>
                  7 12 4 3 -1.</_>
                <_>
                  6 13 4 1 3.</_></rects>
              <tilted>1</tilted></feature>
            <threshold>0.0218579396605492</threshold>
            <left_node>1</left_node>
            <right_val>0.6803063750267029</right_val></_>
          <_>
            <feature>
              <rects>
                <_>
                  10 9 2 4 -1.</_>
                <_>
                  10 10 2 2 2.</_></rects>
              <tilted>0</tilted></feature>
            <threshold>1.1279910104349256e-003</threshold>
            <left_val>-0.2906861901283264</left_val>
            <right_val>0.1985561996698380</right_val></_></_>
        <_>
          <_>
            <feature>
              <rects>
                <_>
                  9 9 2 2 -1.</_>
                <_>
                  9 9 1 1 2.</_>
                <_>
                  10 10 1 1 2.</_></rects>
              <tilted>0</tilted></feature>
            <threshold>-5.1574251847341657e-004</threshold>
            <left_val>0.3572213947772980</left_val>
            <right_node>1</right_node></_>
          <_>
            <feature>
              <rects>
                <_>
                  9 9 1 2 -1.</_>
                <_>
                  9 10 1 1 2.</_></rects>
              <tilted>0</tilted></feature>
            <threshold>-3.8536870852112770e-004</threshold>
            <left_val>0.1511140018701553</left_val>
            <right_val>-0.4539887011051178</right_val></_></_>
        <_>
          <_>
            <feature>
              <rects>
                <_>
                  18 2 2 9 -1.</_>
                <_>
                  19 2 1 9 2.</_></rects>
              <tilted>0</tilted></feature>
            <threshold>2.3621789296157658e-004</threshold>
            <left_val>0.1519045978784561</left_val>
            <right_node>1</right_node></_>
          <_>
            <feature>
              <rects>
                <_>
                  7 12 4 3 -1.</_>
                <_>
                  6 13 4 1 3.</_></rects>
              <tilted>1</tilted></feature>
            <threshold>-0.0161977298557758</threshold>
            <left_val>0.4825966954231262</left_val>
            <right_val>-0.5425292849540710</right_val></_></_>
        <_>
          <_>
            <feature>
              <rects>
                <_>
                  4 8 1 2 -1.</_>
                <_>
                  4 8 1 1 2.</_></rects>
              <tilted>1</tilted></feature>
            <threshold>3.0148960649967194e-003</threshold>
            <left_node>1</left_node>
            <right_val>-0.5980576872825623</right_val></_>
          <_>
            <feature>
              <rects>
                <_>
                  10 3 4 8 -1.</_>
                <_>
                  10 3 4 4 2.</_></rects>
              <tilted>1</tilted></feature>
            <threshold>0.0611992888152599</threshold>
            <left_val>0.2109978944063187</left_val>
            <right_val>-0.4710307121276856</right_val></_></_>
        <_>
          <_>
            <feature>
              <rects>
                <_>
                  0 10 10 9 -1.</_>
                <_>
                  5 10 5 9 2.</_></rects>
              <tilted>0</tilted></feature>
            <threshold>0.0854100883007050</threshold>
            <left_node>1</left_node>
            <right_val>0.4644212126731873</right_val></_>
          <_>
            <feature>
              <rects>
                <_>
                  0 8 18 11 -1.</_>
                <_>
                  6 8 6 11 3.</_></rects>
              <tilted>0</tilted></feature>
            <threshold>-0.1619556993246079</threshold>
            <left_val>0.2616111040115356</left_val>
            <right_val>-0.4334915876388550</right_val></_></_>
        <_>
          <_>
            <feature>
              <rects>
                <_>
                  14 11 4 3 -1.</_>
                <_>
                  14 11 2 3 2.</_></rects>
              <tilted>1</tilted></feature>
            <threshold>6.8641561083495617e-003</threshold>
            <left_node>1</left_node>
            <right_val>0.2317740023136139</right_val></_>
          <_>
            <feature>
              <rects>
                <_>
                  7 10 2 8 -1.</_>
                <_>
                  8 10 1 8 2.</_></rects>
              <tilted>0</tilted></feature>
            <threshold>-6.6952820634469390e-004</threshold>
            <left_val>7.1747498586773872e-003</left_val>
            <right_val>-0.6310945153236389</right_val></_></_>
        <_>
          <_>
            <feature>
              <rects>
                <_>
                  10 2 9 3 -1.</_>
                <_>
                  9 3 9 1 3.</_></rects>
              <tilted>1</tilted></feature>
            <threshold>-8.5974186658859253e-003</threshold>
            <left_val>0.3295649886131287</left_val>
            <right_node>1</right_node></_>
          <_>
            <feature>
              <rects>
                <_>
                  9 0 6 4 -1.</_>
                <_>
                  8 1 6 2 2.</_></rects>
              <tilted>1</tilted></feature>
            <threshold>0.0175355207175016</threshold>
            <left_val>-0.4414091110229492</left_val>
            <right_val>0.3307322859764099</right_val></_></_>
        <_>
          <_>
            <feature>
              <rects>
                <_>
                  4 0 16 2 -1.</_>
                <_>
                  8 0 8 2 2.</_></rects>
              <tilted>0</tilted></feature>
            <threshold>2.5728570763021708e-003</threshold>
            <left_val>-0.2711789906024933</left_val>
            <right_node>1</right_node></_>
          <_>
            <feature>
              <rects>
                <_>
                  0 3 3 17 -1.</_>
                <_>
                  1 3 1 17 3.</_></rects>
              <tilted>0</tilted></feature>
            <threshold>0.0115174902603030</threshold>
            <left_val>0.3420082032680512</left_val>
            <right_val>-0.5207697749137878</right_val></_></_></trees>
      <stage_threshold>-0.8954082727432251</stage_threshold>
      <parent>1</parent>
      <next>-1</next></_>
    <_>
      <trees>
        <_>
          <_>
            <feature>
              <rects>
                <_>
                  9 0 7 3 -1.</_>
                <_>
                  8 1 7 1 3.</_></rects>
              <tilted>1</tilted></feature>
            <threshold>-0.0101258298382163</threshold>
            <left_val>0.3882274925708771</left_val>
            <right_node>1</right_node></_>
          <_>
            <feature>
              <rects>
                <_>
                  9 0 5 6 -1.</_>
                <_>
                  9 3 5 3 2.</_></rects>
              <tilted>0</tilted></feature>
            <threshold>0.0202842708677053</threshold>
            <left_val>-0.3274124860763550</left_val>
            <right_val>0.2857835888862610</right_val></_></_>
        <_>
          <_>
            <feature>
              <rects>
                <_>
                  7 11 2 2 -1.</_>
                <_>
                  7 11 1 1 2.</_>
                <_>
                  8 12 1 1 2.</_></rects>
              <tilted>0</tilted></feature>
            <threshold>8.2838442176580429e-004</threshold>
            <left_node>1</left_node>
            <right_val>0.3498195111751556</right_val></_>
          <_>
            <feature>
              <rects>
                <_>
                  7 11 2 2 -1.</_>
                <_>
                  7 11 1 1 2.</_>
                <_>
                  8 12 1 1 2.</_></rects>
              <tilted>0</tilted></feature>
            <threshold>-5.2782287821173668e-004</threshold>
            <left_val>0.2280621975660324</left_val>
            <right_val>-0.4275782108306885</right_val></_></_>
        <_>
          <_>
            <feature>
              <rects>
                <_>
                  12 16 6 4 -1.</_>
                <_>
                  12 16 3 2 2.</_>
                <_>
                  15 18 3 2 2.</_></rects>
              <tilted>0</tilted></feature>
            <threshold>-0.0127128101885319</threshold>
            <left_val>0.4762930870056152</left_val>
            <right_node>1</right_node></_>
          <_>
            <feature>
              <rects>
                <_>
                  11 4 2 4 -1.</_>
                <_>
                  11 4 1 2 2.</_>
                <_>
                  12 6 1 2 2.</_></rects>
              <tilted>0</tilted></feature>
            <threshold>8.9017057325690985e-004</threshold>
            <left_val>-0.3492094874382019</left_val>
            <right_val>0.1938596069812775</right_val></_></_>
        <_>
          <_>
            <feature>
              <rects>
                <_>
                  0 0 5 2 -1.</_>
                <_>
                  0 1 5 1 2.</_></rects>
              <tilted>0</tilted></feature>
            <threshold>-5.3524330724030733e-004</threshold>
            <left_val>-0.4363706111907959</left_val>
            <right_node>1</right_node></_>
          <_>
            <feature>
              <rects>
                <_>
                  10 2 3 6 -1.</_>
                <_>
                  10 4 3 2 3.</_></rects>
              <tilted>0</tilted></feature>
            <threshold>0.0130589297041297</threshold>
            <left_val>0.2377704977989197</left_val>
            <right_val>-0.6780989170074463</right_val></_></_>
        <_>
          <_>
            <feature>
              <rects>
                <_>
                  5 0 3 15 -1.</_>
                <_>
                  6 0 1 15 3.</_></rects>
              <tilted>0</tilted></feature>
            <threshold>0.0159244593232870</threshold>
            <left_node>1</left_node>
            <right_val>-0.5629258751869202</right_val></_>
          <_>
            <feature>
              <rects>
                <_>
                  15 19 3 1 -1.</_>
                <_>
                  16 19 1 1 3.</_></rects>
              <tilted>0</tilted></feature>
            <threshold>3.6578809376806021e-003</threshold>
            <left_val>0.1602488011121750</left_val>
            <right_val>-0.8498846888542175</right_val></_></_>
        <_>
          <_>
            <feature>
              <rects>
                <_>
                  6 14 5 3 -1.</_>
                <_>
                  6 15 5 1 3.</_></rects>
              <tilted>0</tilted></feature>
            <threshold>1.4313169522210956e-003</threshold>
            <left_node>1</left_node>
            <right_val>0.2328874021768570</right_val></_>
          <_>
            <feature>
              <rects>
                <_>
                  8 3 4 6 -1.</_>
                <_>
                  8 3 2 3 2.</_>
                <_>
                  10 6 2 3 2.</_></rects>
              <tilted>0</tilted></feature>
            <threshold>-3.6562068853527308e-003</threshold>
            <left_val>0.1412408053874970</left_val>
            <right_val>-0.4639323055744171</right_val></_></_>
        <_>
          <_>
            <feature>
              <rects>
                <_>
                  7 1 4 6 -1.</_>
                <_>
                  7 1 2 3 2.</_>
                <_>
                  9 4 2 3 2.</_></rects>
              <tilted>0</tilted></feature>
            <threshold>8.8870180770754814e-003</threshold>
            <left_node>1</left_node>
            <right_val>0.4423342943191528</right_val></_>
          <_>
            <feature>
              <rects>
                <_>
                  2 13 1 4 -1.</_>
                <_>
                  2 15 1 2 2.</_></rects>
              <tilted>0</tilted></feature>
            <threshold>-4.3653018656186759e-004</threshold>
            <left_val>0.0801352933049202</left_val>
            <right_val>-0.4224638938903809</right_val></_></_>
        <_>
          <_>
            <feature>
              <rects>
                <_>
                  2 0 18 2 -1.</_>
                <_>
                  8 0 6 2 3.</_></rects>
              <tilted>0</tilted></feature>
            <threshold>-3.8169850595295429e-003</threshold>
            <left_val>-0.3973107933998108</left_val>
            <right_node>1</right_node></_>
          <_>
            <feature>
              <rects>
                <_>
                  0 19 3 1 -1.</_>
                <_>
                  1 19 1 1 3.</_></rects>
              <tilted>0</tilted></feature>
            <threshold>-1.5594050055369735e-003</threshold>
            <left_val>-0.6055386066436768</left_val>
            <right_val>0.2349033951759338</right_val></_></_>
        <_>
          <_>
            <feature>
              <rects>
                <_>
                  7 9 10 2 -1.</_>
                <_>
                  7 9 5 1 2.</_>
                <_>
                  12 10 5 1 2.</_></rects>
              <tilted>0</tilted></feature>
            <threshold>-1.6267709434032440e-003</threshold>
            <left_val>0.2614957094192505</left_val>
            <right_node>1</right_node></_>
          <_>
            <feature>
              <rects>
                <_>
                  8 10 6 4 -1.</_>
                <_>
                  8 10 3 2 2.</_>
                <_>
                  11 12 3 2 2.</_></rects>
              <tilted>0</tilted></feature>
            <threshold>-4.7376938164234161e-003</threshold>
            <left_val>0.1903411000967026</left_val>
            <right_val>-0.4789316952228546</right_val></_></_>
        <_>
          <_>
            <feature>
              <rects>
                <_>
                  12 7 8 12 -1.</_>
                <_>
                  16 7 4 12 2.</_></rects>
              <tilted>0</tilted></feature>
            <threshold>0.1232865005731583</threshold>
            <left_node>1</left_node>
            <right_val>0.6261047720909119</right_val></_>
          <_>
            <feature>
              <rects>
                <_>
                  5 14 4 3 -1.</_>
                <_>
                  6 14 2 3 2.</_></rects>
              <tilted>0</tilted></feature>
            <threshold>-2.4182109627872705e-003</threshold>
            <left_val>0.2629894018173218</left_val>
            <right_val>-0.2758117020130158</right_val></_></_></trees>
      <stage_threshold>-0.9805325865745544</stage_threshold>
      <parent>2</parent>
      <next>-1</next></_>
    <_>
      <trees>
        <_>
          <_>
            <feature>
              <rects>
                <_>
                  0 4 18 14 -1.</_>
                <_>
                  6 4 6 14 3.</_></rects>
              <tilted>0</tilted></feature>
            <threshold>0.5735877156257629</threshold>
            <left_node>1</left_node>
            <right_val>0.6808730959892273</right_val></_>
          <_>
            <feature>
              <rects>
                <_>
                  6 2 8 5 -1.</_>
                <_>
                  6 2 4 5 2.</_></rects>
              <tilted>1</tilted></feature>
            <threshold>0.0923649370670319</threshold>
            <left_val>-0.2184523940086365</left_val>
            <right_val>0.3116545975208283</right_val></_></_>
        <_>
          <_>
            <feature>
              <rects>
                <_>
                  16 18 3 2 -1.</_>
                <_>
                  16 19 3 1 2.</_></rects>
              <tilted>0</tilted></feature>
            <threshold>-9.8222144879400730e-004</threshold>
            <left_val>0.2151201963424683</left_val>
            <right_node>1</right_node></_>
          <_>
            <feature>
              <rects>
                <_>
                  10 18 3 2 -1.</_>
                <_>
                  10 19 3 1 2.</_></rects>
              <tilted>0</tilted></feature>
            <threshold>-6.0156977269798517e-004</threshold>
            <left_val>0.0889657735824585</left_val>
            <right_val>-0.5091673135757446</right_val></_></_>
        <_>
          <_>
            <feature>
              <rects>
                <_>
                  9 3 8 12 -1.</_>
                <_>
                  9 6 8 6 2.</_></rects>
              <tilted>0</tilted></feature>
            <threshold>-0.0631428062915802</threshold>
            <left_val>-0.7219843864440918</left_val>
            <right_node>1</right_node></_>
          <_>
            <feature>
              <rects>
                <_>
                  14 3 2 4 -1.</_>
                <_>
                  14 3 2 2 2.</_></rects>
              <tilted>1</tilted></feature>
            <threshold>0.0111593501642346</threshold>
            <left_val>-0.0648704767227173</left_val>
            <right_val>0.4000884890556335</right_val></_></_>
        <_>
          <_>
            <feature>
              <rects>
                <_>
                  15 0 5 6 -1.</_>
                <_>
                  13 2 5 2 3.</_></rects>
              <tilted>1</tilted></feature>
            <threshold>-0.0203283801674843</threshold>
            <left_val>0.3267480134963989</left_val>
            <right_node>1</right_node></_>
          <_>
            <feature>
              <rects>
                <_>
                  4 11 1 4 -1.</_>
                <_>
                  4 12 1 2 2.</_></rects>
              <tilted>0</tilted></feature>
            <threshold>-5.7397829368710518e-004</threshold>
            <left_val>0.1147971004247665</left_val>
            <right_val>-0.3845035135746002</right_val></_></_>
        <_>
          <_>
            <feature>
              <rects>
                <_>
                  8 13 3 7 -1.</_>
                <_>
                  9 13 1 7 3.</_></rects>
              <tilted>0</tilted></feature>
            <threshold>-0.0144490804523230</threshold>
            <left_val>-0.8617123961448669</left_val>
            <right_node>1</right_node></_>
          <_>
            <feature>
              <rects>
                <_>
                  10 10 1 3 -1.</_>
                <_>
                  10 11 1 1 3.</_></rects>
              <tilted>0</tilted></feature>
            <threshold>1.7601390136405826e-003</threshold>
            <left_val>-0.0761500969529152</left_val>
            <right_val>0.3828851878643036</right_val></_></_>
        <_>
          <_>
            <feature>
              <rects>
                <_>
                  9 11 2 2 -1.</_>
                <_>
                  9 12 2 1 2.</_></rects>
              <tilted>0</tilted></feature>
            <threshold>1.2319060042500496e-003</threshold>
            <left_node>1</left_node>
            <right_val>0.3585833013057709</right_val></_>
          <_>
            <feature>
              <rects>
                <_>
                  9 11 3 2 -1.</_>
                <_>
                  10 11 1 2 3.</_></rects>
              <tilted>0</tilted></feature>
            <threshold>-1.2359280372038484e-003</threshold>
            <left_val>0.1505194008350372</left_val>
            <right_val>-0.3558546006679535</right_val></_></_>
        <_>
          <_>
            <feature>
              <rects>
                <_>
                  5 18 12 2 -1.</_>
                <_>
                  9 18 4 2 3.</_></rects>
              <tilted>0</tilted></feature>
            <threshold>0.0278220195323229</threshold>
            <left_node>1</left_node>
            <right_val>0.4216574132442474</right_val></_>
          <_>
            <feature>
              <rects>
                <_>
                  6 17 9 3 -1.</_>
                <_>
                  9 18 3 1 9.</_></rects>
              <tilted>0</tilted></feature>
            <threshold>3.3890659688040614e-004</threshold>
            <left_val>0.0765108689665794</left_val>
            <right_val>-0.4680424034595490</right_val></_></_>
        <_>
          <_>
            <feature>
              <rects>
                <_>
                  9 12 3 8 -1.</_>
                <_>
                  10 12 1 8 3.</_></rects>
              <tilted>0</tilted></feature>
            <threshold>-0.0154715301468968</threshold>
            <left_val>-0.7436234951019287</left_val>
            <right_node>1</right_node></_>
          <_>
            <feature>
              <rects>
                <_>
                  12 3 8 1 -1.</_>
                <_>
                  16 3 4 1 2.</_></rects>
              <tilted>0</tilted></feature>
            <threshold>-0.0231929905712605</threshold>
            <left_val>0.7732805013656616</left_val>
            <right_val>-0.0160964000970125</right_val></_></_>
        <_>
          <_>
            <feature>
              <rects>
                <_>
                  9 2 2 15 -1.</_>
                <_>
                  9 7 2 5 3.</_></rects>
              <tilted>0</tilted></feature>
            <threshold>-0.0406875684857368</threshold>
            <left_val>-0.7789592146873474</left_val>
            <right_node>1</right_node></_>
          <_>
            <feature>
              <rects>
                <_>
                  12 0 3 1 -1.</_>
                <_>
                  13 0 1 1 3.</_></rects>
              <tilted>0</tilted></feature>
            <threshold>9.3847361858934164e-004</threshold>
            <left_val>0.1574622988700867</left_val>
            <right_val>-0.5100393891334534</right_val></_></_>
        <_>
          <_>
            <feature>
              <rects>
                <_>
                  12 0 5 4 -1.</_>
                <_>
                  11 1 5 2 2.</_></rects>
              <tilted>1</tilted></feature>
            <threshold>0.0147665096446872</threshold>
            <left_node>1</left_node>
            <right_val>0.3706446886062622</right_val></_>
          <_>
            <feature>
              <rects>
                <_>
                  10 3 4 4 -1.</_>
                <_>
                  9 4 4 2 2.</_></rects>
              <tilted>1</tilted></feature>
            <threshold>0.0123575497418642</threshold>
            <left_val>-0.2817875146865845</left_val>
            <right_val>0.2438205033540726</right_val></_></_>
        <_>
          <_>
            <feature>
              <rects>
                <_>
                  14 2 2 11 -1.</_>
                <_>
                  14 2 1 11 2.</_></rects>
              <tilted>1</tilted></feature>
            <threshold>0.0215659309178591</threshold>
            <left_node>1</left_node>
            <right_val>0.3994748890399933</right_val></_>
          <_>
            <feature>
              <rects>
                <_>
                  10 16 3 1 -1.</_>
                <_>
                  11 17 1 1 3.</_></rects>
              <tilted>1</tilted></feature>
            <threshold>4.8325248062610626e-003</threshold>
            <left_val>-0.0437691211700439</left_val>
            <right_val>-0.9016631245613098</right_val></_></_></trees>
      <stage_threshold>-0.8379365801811218</stage_threshold>
      <parent>3</parent>
      <next>-1</next></_>
    <_>
      <trees>
        <_>
          <_>
            <feature>
              <rects>
                <_>
                  0 17 3 2 -1.</_>
                <_>
                  1 17 1 2 3.</_></rects>
              <tilted>0</tilted></feature>
            <threshold>2.3634440731257200e-003</threshold>
            <left_node>1</left_node>
            <right_val>-0.5809627175331116</right_val></_>
          <_>
            <feature>
              <rects>
                <_>
                  13 0 7 8 -1.</_>
                <_>
                  13 2 7 4 2.</_></rects>
              <tilted>0</tilted></feature>
            <threshold>-2.9736559372395277e-003</threshold>
            <left_val>-0.2767815887928009</left_val>
            <right_val>0.2652857899665833</right_val></_></_>
        <_>
          <_>
            <feature>
              <rects>
                <_>
                  2 2 3 7 -1.</_>
                <_>
                  3 2 1 7 3.</_></rects>
              <tilted>0</tilted></feature>
            <threshold>-5.8040251024067402e-003</threshold>
            <left_val>-0.5102239847183228</left_val>
            <right_node>1</right_node></_>
          <_>
            <feature>
              <rects>
                <_>
                  2 4 3 7 -1.</_>
                <_>
                  3 4 1 7 3.</_></rects>
              <tilted>0</tilted></feature>
            <threshold>5.6829531677067280e-003</threshold>
            <left_val>0.2245641052722931</left_val>
            <right_val>-0.4110583066940308</right_val></_></_>
        <_>
          <_>
            <feature>
              <rects>
                <_>
                  5 12 6 2 -1.</_>
                <_>
                  5 12 6 1 2.</_></rects>
              <tilted>1</tilted></feature>
            <threshold>0.0301700700074434</threshold>
            <left_node>1</left_node>
            <right_val>0.7130674123764038</right_val></_>
          <_>
            <feature>
              <rects>
                <_>
                  2 19 14 1 -1.</_>
                <_>
                  9 19 7 1 2.</_></rects>
              <tilted>0</tilted></feature>
            <threshold>-0.0178320202976465</threshold>
            <left_val>0.3592675030231476</left_val>
            <right_val>-0.2092088013887405</right_val></_></_>
        <_>
          <_>
            <feature>
              <rects>
                <_>
                  11 5 9 10 -1.</_>
                <_>
                  14 5 3 10 3.</_></rects>
              <tilted>0</tilted></feature>
            <threshold>0.0532748587429523</threshold>
            <left_node>1</left_node>
            <right_val>0.3418974876403809</right_val></_>
          <_>
            <feature>
              <rects>
                <_>
                  19 13 1 6 -1.</_>
                <_>
                  19 16 1 3 2.</_></rects>
              <tilted>0</tilted></feature>
            <threshold>-9.9237612448632717e-004</threshold>
            <left_val>0.0768480822443962</left_val>
            <right_val>-0.4368939995765686</right_val></_></_>
        <_>
          <_>
            <feature>
              <rects>
                <_>
                  5 17 3 2 -1.</_>
                <_>
                  5 18 3 1 2.</_></rects>
              <tilted>0</tilted></feature>
            <threshold>-9.4505859306082129e-004</threshold>
            <left_node>1</left_node>
            <right_val>-0.2529762983322144</right_val></_>
          <_>
            <feature>
              <rects>
                <_>
                  4 17 8 3 -1.</_>
                <_>
                  4 18 8 1 3.</_></rects>
              <tilted>0</tilted></feature>
            <threshold>-0.0202637594193220</threshold>
            <left_val>-0.9895964860916138</left_val>
            <right_val>0.2827036082744598</right_val></_></_>
        <_>
          <_>
            <feature>
              <rects>
                <_>
                  8 5 5 4 -1.</_>
                <_>
                  8 6 5 2 2.</_></rects>
              <tilted>0</tilted></feature>
            <threshold>-0.0103923697024584</threshold>
            <left_val>-0.8464592099189758</left_val>
            <right_node>1</right_node></_>
          <_>
            <feature>
              <rects>
                <_>
                  10 5 5 3 -1.</_>
                <_>
                  10 6 5 1 3.</_></rects>
              <tilted>0</tilted></feature>
            <threshold>0.0125288097187877</threshold>
            <left_val>0.1145604029297829</left_val>
            <right_val>-0.9483100771903992</right_val></_></_>
        <_>
          <_>
            <feature>
              <rects>
                <_>
                  9 5 3 6 -1.</_>
                <_>
                  10 6 1 6 3.</_></rects>
              <tilted>1</tilted></feature>
            <threshold>-0.0122806895524263</threshold>
            <left_val>0.3726511895656586</left_val>
            <right_node>1</right_node></_>
          <_>
            <feature>
              <rects>
                <_>
                  3 13 2 4 -1.</_>
                <_>
                  3 15 2 2 2.</_></rects>
              <tilted>0</tilted></feature>
            <threshold>-1.8834399525076151e-003</threshold>
            <left_val>0.1254847943782806</left_val>
            <right_val>-0.3979895114898682</right_val></_></_>
        <_>
          <_>
            <feature>
              <rects>
                <_>
                  6 15 3 2 -1.</_>
                <_>
                  7 16 1 2 3.</_></rects>
              <tilted>1</tilted></feature>
            <threshold>0.0111898398026824</threshold>
            <left_node>1</left_node>
            <right_val>-0.9615691900253296</right_val></_>
          <_>
            <feature>
              <rects>
                <_>
                  6 9 3 9 -1.</_>
                <_>
                  7 9 1 9 3.</_></rects>
              <tilted>0</tilted></feature>
            <threshold>0.0197438001632690</threshold>
            <left_val>0.1261675059795380</left_val>
            <right_val>-0.7026336193084717</right_val></_></_>
        <_>
          <_>
            <feature>
              <rects>
                <_>
                  0 7 3 1 -1.</_>
                <_>
                  1 7 1 1 3.</_></rects>
              <tilted>0</tilted></feature>
            <threshold>-4.6772800851613283e-004</threshold>
            <left_val>-0.3757793009281158</left_val>
            <right_node>1</right_node></_>
          <_>
            <feature>
              <rects>
                <_>
                  9 6 3 6 -1.</_>
                <_>
                  9 6 3 3 2.</_></rects>
              <tilted>1</tilted></feature>
            <threshold>-0.0351824201643467</threshold>
            <left_val>-0.7044268250465393</left_val>
            <right_val>0.1826713979244232</right_val></_></_></trees>
      <stage_threshold>-0.7635632157325745</stage_threshold>
      <parent>4</parent>
      <next>-1</next></_>
    <_>
      <trees>
        <_>
          <_>
            <feature>
              <rects>
                <_>
                  10 0 4 2 -1.</_>
                <_>
                  11 0 2 2 2.</_></rects>
              <tilted>0</tilted></feature>
            <threshold>1.5590980183333158e-003</threshold>
            <left_node>1</left_node>
            <right_val>-0.3922257125377655</right_val></_>
          <_>
            <feature>
              <rects>
                <_>
                  9 5 3 3 -1.</_>
                <_>
                  10 5 1 3 3.</_></rects>
              <tilted>0</tilted></feature>
            <threshold>-3.5385529045015574e-003</threshold>
            <left_val>0.4464038014411926</left_val>
            <right_val>-0.0245418492704630</right_val></_></_>
        <_>
          <_>
            <feature>
              <rects>
                <_>
                  8 5 3 4 -1.</_>
                <_>
                  9 5 1 4 3.</_></rects>
              <tilted>0</tilted></feature>
            <threshold>-2.6725239586085081e-003</threshold>
            <left_val>0.3276889920234680</left_val>
            <right_node>1</right_node></_>
          <_>
            <feature>
              <rects>
                <_>
                  8 6 4 3 -1.</_>
                <_>
                  9 6 2 3 2.</_></rects>
              <tilted>0</tilted></feature>
            <threshold>4.5824297703802586e-003</threshold>
            <left_val>-0.4484815895557404</left_val>
            <right_val>0.2506698071956635</right_val></_></_>
        <_>
          <_>
            <feature>
              <rects>
                <_>
                  11 4 4 15 -1.</_>
                <_>
                  13 4 2 15 2.</_></rects>
              <tilted>0</tilted></feature>
            <threshold>-0.0512030906975269</threshold>
            <left_val>0.3675585091114044</left_val>
            <right_node>1</right_node></_>
          <_>
            <feature>
              <rects>
                <_>
                  10 13 1 4 -1.</_>
                <_>
                  10 13 1 2 2.</_></rects>
              <tilted>1</tilted></feature>
            <threshold>-5.0842887721955776e-003</threshold>
            <left_val>0.2086791992187500</left_val>
            <right_val>-0.3176209032535553</right_val></_></_>
        <_>
          <_>
            <feature>
              <rects>
                <_>
                  11 10 3 6 -1.</_>
                <_>
                  12 10 1 6 3.</_></rects>
              <tilted>0</tilted></feature>
            <threshold>0.0163126196712255</threshold>
            <left_node>1</left_node>
            <right_val>-0.8805708885192871</right_val></_>
          <_>
            <feature>
              <rects>
                <_>
                  9 7 3 6 -1.</_>
                <_>
                  10 7 1 6 3.</_></rects>
              <tilted>0</tilted></feature>
            <threshold>-4.2083850130438805e-003</threshold>
            <left_val>0.3473170995712280</left_val>
            <right_val>-0.0982720106840134</right_val></_></_>
        <_>
          <_>
            <feature>
              <rects>
                <_>
                  0 16 11 2 -1.</_>
                <_>
                  0 17 11 1 2.</_></rects>
              <tilted>0</tilted></feature>
            <threshold>-2.6693099644035101e-003</threshold>
            <left_val>0.1887670010328293</left_val>
            <right_node>1</right_node></_>
          <_>
            <feature>
              <rects>
                <_>
                  9 13 4 4 -1.</_>
                <_>
                  9 14 4 2 2.</_></rects>
              <tilted>0</tilted></feature>
            <threshold>-2.6399670168757439e-003</threshold>
            <left_val>0.0984096229076386</left_val>
            <right_val>-0.5502908825874329</right_val></_></_>
        <_>
          <_>
            <feature>
              <rects>
                <_>
                  4 4 16 7 -1.</_>
                <_>
                  12 4 8 7 2.</_></rects>
              <tilted>0</tilted></feature>
            <threshold>-0.2402182072401047</threshold>
            <left_val>-1.</left_val>
            <right_node>1</right_node></_>
          <_>
            <feature>
              <rects>
                <_>
                  6 7 1 6 -1.</_>
                <_>
                  6 7 1 3 2.</_></rects>
              <tilted>1</tilted></feature>
            <threshold>-1.0601120302453637e-003</threshold>
            <left_val>-0.2622782886028290</left_val>
            <right_val>0.1779163032770157</right_val></_></_>
        <_>
          <_>
            <feature>
              <rects>
                <_>
                  0 18 3 2 -1.</_>
                <_>
                  1 18 1 2 3.</_></rects>
              <tilted>0</tilted></feature>
            <threshold>-1.6085950192064047e-003</threshold>
            <left_val>-0.4412702023983002</left_val>
            <right_node>1</right_node></_>
          <_>
            <feature>
              <rects>
                <_>
                  6 13 10 3 -1.</_>
                <_>
                  6 14 10 1 3.</_></rects>
              <tilted>0</tilted></feature>
            <threshold>-0.0169566199183464</threshold>
            <left_val>-0.7312539815902710</left_val>
            <right_val>0.1508394032716751</right_val></_></_>
        <_>
          <_>
            <feature>
              <rects>
                <_>
                  7 13 2 3 -1.</_>
                <_>
                  6 14 2 1 3.</_></rects>
              <tilted>1</tilted></feature>
            <threshold>-7.7454550191760063e-003</threshold>
            <left_val>0.4028255939483643</left_val>
            <right_node>1</right_node></_>
          <_>
            <feature>
              <rects>
                <_>
                  3 13 4 1 -1.</_>
                <_>
                  4 13 2 1 2.</_></rects>
              <tilted>0</tilted></feature>
            <threshold>5.8620172785595059e-004</threshold>
            <left_val>-0.3227859139442444</left_val>
            <right_val>0.1419208049774170</right_val></_></_>
        <_>
          <_>
            <feature>
              <rects>
                <_>
                  10 15 2 3 -1.</_>
                <_>
                  10 15 1 3 2.</_></rects>
              <tilted>1</tilted></feature>
            <threshold>0.0127591798081994</threshold>
            <left_node>1</left_node>
            <right_val>-0.7897831201553345</right_val></_>
          <_>
            <feature>
              <rects>
                <_>
                  12 13 3 3 -1.</_>
                <_>
                  13 14 1 1 9.</_></rects>
              <tilted>0</tilted></feature>
            <threshold>0.0146670900285244</threshold>
            <left_val>0.1298463940620422</left_val>
            <right_val>-0.7300506234169006</right_val></_></_>
        <_>
          <_>
            <feature>
              <rects>
                <_>
                  15 0 4 16 -1.</_>
                <_>
                  15 0 2 8 2.</_>
                <_>
                  17 8 2 8 2.</_></rects>
              <tilted>0</tilted></feature>
            <threshold>0.0400514788925648</threshold>
            <left_node>1</left_node>
            <right_val>0.4677743017673492</right_val></_>
          <_>
            <feature>
              <rects>
                <_>
                  1 15 6 2 -1.</_>
                <_>
                  3 15 2 2 3.</_></rects>
              <tilted>0</tilted></feature>
            <threshold>-0.0100084701552987</threshold>
            <left_val>0.3420594036579132</left_val>
            <right_val>-0.2205124944448471</right_val></_></_>
        <_>
          <_>
            <feature>
              <rects>
                <_>
                  2 17 2 2 -1.</_>
                <_>
                  2 18 2 1 2.</_></rects>
              <tilted>0</tilted></feature>
            <threshold>-1.1741879861801863e-003</threshold>
            <left_val>0.2976733148097992</left_val>
            <right_node>1</right_node></_>
          <_>
            <feature>
              <rects>
                <_>
                  11 0 4 10 -1.</_>
                <_>
                  11 0 4 5 2.</_></rects>
              <tilted>1</tilted></feature>
            <threshold>-0.0684522613883018</threshold>
            <left_val>-0.8482434749603272</left_val>
            <right_val>-0.0550275295972824</right_val></_></_></trees>
      <stage_threshold>-0.5730913877487183</stage_threshold>
      <parent>5</parent>
      <next>-1</next></_>
    <_>
      <trees>
        <_>
          <_>
            <feature>
              <rects>
                <_>
                  10 1 3 2 -1.</_>
                <_>
                  11 2 1 2 3.</_></rects>
              <tilted>1</tilted></feature>
            <threshold>0.0146078998222947</threshold>
            <left_node>1</left_node>
            <right_val>-0.9998465776443481</right_val></_>
          <_>
            <feature>
              <rects>
                <_>
                  10 19 3 1 -1.</_>
                <_>
                  11 19 1 1 3.</_></rects>
              <tilted>0</tilted></feature>
            <threshold>3.5475769545882940e-003</threshold>
            <left_val>0.0793938636779785</left_val>
            <right_val>-0.8407210707664490</right_val></_></_>
        <_>
          <_>
            <feature>
              <rects>
                <_>
                  7 17 8 2 -1.</_>
                <_>
                  11 17 4 2 2.</_></rects>
              <tilted>0</tilted></feature>
            <threshold>-0.0215095691382885</threshold>
            <left_val>0.4543923139572144</left_val>
            <right_node>1</right_node></_>
          <_>
            <feature>
              <rects>
                <_>
                  9 19 4 1 -1.</_>
                <_>
                  11 19 2 1 2.</_></rects>
              <tilted>0</tilted></feature>
            <threshold>7.2302267653867602e-004</threshold>
            <left_val>-0.2684965133666992</left_val>
            <right_val>0.1796481013298035</right_val></_></_>
        <_>
          <_>
            <feature>
              <rects>
                <_>
                  1 13 1 4 -1.</_>
                <_>
                  1 15 1 2 2.</_></rects>
              <tilted>0</tilted></feature>
            <threshold>-4.6323449350893497e-004</threshold>
            <left_node>1</left_node>
            <right_val>-0.2379924058914185</right_val></_>
          <_>
            <feature>
              <rects>
                <_>
                  2 7 2 4 -1.</_>
                <_>
                  3 7 1 4 2.</_></rects>
              <tilted>0</tilted></feature>
            <threshold>-1.4129379997029901e-003</threshold>
            <left_val>-0.4040918052196503</left_val>
            <right_val>0.2686583101749420</right_val></_></_>
        <_>
          <_>
            <feature>
              <rects>
                <_>
                  6 7 3 4 -1.</_>
                <_>
                  6 9 3 2 2.</_></rects>
              <tilted>0</tilted></feature>
            <threshold>7.0432871580123901e-003</threshold>
            <left_node>1</left_node>
            <right_val>0.3281767070293427</right_val></_>
          <_>
            <feature>
              <rects>
                <_>
                  2 7 10 1 -1.</_>
                <_>
                  7 7 5 1 2.</_></rects>
              <tilted>0</tilted></feature>
            <threshold>-7.0680179633200169e-003</threshold>
            <left_val>0.1713249981403351</left_val>
            <right_val>-0.3561361134052277</right_val></_></_>
        <_>
          <_>
            <feature>
              <rects>
                <_>
                  17 1 1 8 -1.</_>
                <_>
                  17 1 1 4 2.</_></rects>
              <tilted>1</tilted></feature>
            <threshold>-0.0253102704882622</threshold>
            <left_val>0.4465337991714478</left_val>
            <right_node>1</right_node></_>
          <_>
            <feature>
              <rects>
                <_>
                  11 11 9 7 -1.</_>
                <_>
                  14 11 3 7 3.</_></rects>
              <tilted>0</tilted></feature>
            <threshold>0.0535394810140133</threshold>
            <left_val>-0.2434055060148239</left_val>
            <right_val>0.3087809085845947</right_val></_></_>
        <_>
          <_>
            <feature>
              <rects>
                <_>
                  11 3 2 2 -1.</_>
                <_>
                  11 3 1 2 2.</_></rects>
              <tilted>1</tilted></feature>
            <threshold>-2.4302930105477571e-003</threshold>
            <left_node>1</left_node>
            <right_val>0.1134124025702477</right_val></_>
          <_>
            <feature>
              <rects>
                <_>
                  11 11 6 3 -1.</_>
                <_>
                  11 12 6 1 3.</_></rects>
              <tilted>0</tilted></feature>
            <threshold>1.4103299472481012e-003</threshold>
            <left_val>-0.8003153204917908</left_val>
            <right_val>0.0464179702103138</right_val></_></_>
        <_>
          <_>
            <feature>
              <rects>
                <_>
                  19 0 1 2 -1.</_>
                <_>
                  19 1 1 1 2.</_></rects>
              <tilted>0</tilted></feature>
            <threshold>6.3734260038472712e-005</threshold>
            <left_node>1</left_node>
            <right_val>0.1687916964292526</right_val></_>
          <_>
            <feature>
              <rects>
                <_>
                  7 13 1 6 -1.</_>
                <_>
                  7 13 1 3 2.</_></rects>
              <tilted>1</tilted></feature>
            <threshold>-7.5146709568798542e-003</threshold>
            <left_val>0.2764931917190552</left_val>
            <right_val>-0.4660556912422180</right_val></_></_>
        <_>
          <_>
            <feature>
              <rects>
                <_>
                  12 15 4 1 -1.</_>
                <_>
                  14 15 2 1 2.</_></rects>
              <tilted>0</tilted></feature>
            <threshold>-5.3355460986495018e-003</threshold>
            <left_val>0.4478408992290497</left_val>
            <right_node>1</right_node></_>
          <_>
            <feature>
              <rects>
                <_>
                  18 0 2 2 -1.</_>
                <_>
                  19 0 1 2 2.</_></rects>
              <tilted>0</tilted></feature>
            <threshold>-1.4445539272855967e-004</threshold>
            <left_val>0.0998929366469383</left_val>
            <right_val>-0.4182034134864807</right_val></_></_>
        <_>
          <_>
            <feature>
              <rects>
                <_>
                  8 4 10 4 -1.</_>
                <_>
                  8 5 10 2 2.</_></rects>
              <tilted>0</tilted></feature>
            <threshold>-0.0164805091917515</threshold>
            <left_val>-0.6955630779266357</left_val>
            <right_node>1</right_node></_>
          <_>
            <feature>
              <rects>
                <_>
                  11 15 3 5 -1.</_>
                <_>
                  12 15 1 5 3.</_></rects>
              <tilted>0</tilted></feature>
            <threshold>9.1399447992444038e-003</threshold>
            <left_val>0.1343505978584290</left_val>
            <right_val>-0.6796535849571228</right_val></_></_>
        <_>
          <_>
            <feature>
              <rects>
                <_>
                  16 3 4 2 -1.</_>
                <_>
                  17 3 2 2 2.</_></rects>
              <tilted>0</tilted></feature>
            <threshold>8.9687528088688850e-004</threshold>
            <left_node>1</left_node>
            <right_val>-0.3841860890388489</right_val></_>
          <_>
            <feature>
              <rects>
                <_>
                  10 1 2 2 -1.</_>
                <_>
                  11 1 1 2 2.</_></rects>
              <tilted>0</tilted></feature>
            <threshold>-1.7636750126257539e-003</threshold>
            <left_val>-0.5092098712921143</left_val>
            <right_val>0.2167343050241470</right_val></_></_>
        <_>
          <_>
            <feature>
              <rects>
                <_>
                  3 3 3 10 -1.</_>
                <_>
                  4 3 1 10 3.</_></rects>
              <tilted>0</tilted></feature>
            <threshold>9.3297995626926422e-003</threshold>
            <left_node>1</left_node>
            <right_val>-0.5009369254112244</right_val></_>
          <_>
            <feature>
              <rects>
                <_>
                  6 5 11 12 -1.</_>
                <_>
                  6 11 11 6 2.</_></rects>
              <tilted>0</tilted></feature>
            <threshold>-0.2504813075065613</threshold>
            <left_val>-1.</left_val>
            <right_val>0.1302783936262131</right_val></_></_></trees>
      <stage_threshold>-0.8678507804870606</stage_threshold>
      <parent>6</parent>
      <next>-1</next></_>
    <_>
      <trees>
        <_>
          <_>
            <feature>
              <rects>
                <_>
                  6 13 3 2 -1.</_>
                <_>
                  7 14 1 2 3.</_></rects>
              <tilted>1</tilted></feature>
            <threshold>8.2119144499301910e-003</threshold>
            <left_node>1</left_node>
            <right_val>-0.5463762879371643</right_val></_>
          <_>
            <feature>
              <rects>
                <_>
                  3 14 6 2 -1.</_>
                <_>
                  5 14 2 2 3.</_></rects>
              <tilted>0</tilted></feature>
            <threshold>0.0116094499826431</threshold>
            <left_val>-0.0270968992263079</left_val>
            <right_val>0.5095440745353699</right_val></_></_>
        <_>
          <_>
            <feature>
              <rects>
                <_>
                  4 16 1 3 -1.</_>
                <_>
                  3 17 1 1 3.</_></rects>
              <tilted>1</tilted></feature>
            <threshold>-5.4641952738165855e-004</threshold>
            <left_val>-0.2593879103660584</left_val>
            <right_node>1</right_node></_>
          <_>
            <feature>
              <rects>
                <_>
                  9 5 2 4 -1.</_>
                <_>
                  9 7 2 2 2.</_></rects>
              <tilted>0</tilted></feature>
            <threshold>-9.4967428594827652e-003</threshold>
            <left_val>-0.6160681247711182</left_val>
            <right_val>0.1952261030673981</right_val></_></_>
        <_>
          <_>
            <feature>
              <rects>
                <_>
                  8 4 6 6 -1.</_>
                <_>
                  10 6 2 6 3.</_></rects>
              <tilted>1</tilted></feature>
            <threshold>-0.0321910418570042</threshold>
            <left_val>0.2731106877326965</left_val>
            <right_node>1</right_node></_>
          <_>
            <feature>
              <rects>
                <_>
                  6 5 8 6 -1.</_>
                <_>
                  8 7 4 6 2.</_></rects>
              <tilted>1</tilted></feature>
            <threshold>0.0145347798243165</threshold>
            <left_val>-0.5140907168388367</left_val>
            <right_val>0.0327420309185982</right_val></_></_>
        <_>
          <_>
            <feature>
              <rects>
                <_>
                  5 11 6 4 -1.</_>
                <_>
                  7 11 2 4 3.</_></rects>
              <tilted>0</tilted></feature>
            <threshold>-0.0293633695691824</threshold>
            <left_val>-0.8722475171089172</left_val>
            <right_node>1</right_node></_>
          <_>
            <feature>
              <rects>
                <_>
                  6 12 4 2 -1.</_>
                <_>
                  6 12 2 1 2.</_>
                <_>
                  8 13 2 1 2.</_></rects>
              <tilted>0</tilted></feature>
            <threshold>1.4868669677525759e-003</threshold>
            <left_val>-0.0704644620418549</left_val>
            <right_val>0.3435673117637634</right_val></_></_>
        <_>
          <_>
            <feature>
              <rects>
                <_>
                  9 12 1 3 -1.</_>
                <_>
                  9 13 1 1 3.</_></rects>
              <tilted>0</tilted></feature>
            <threshold>-2.4515280965715647e-003</threshold>
            <left_val>0.4101333916187286</left_val>
            <right_node>1</right_node></_>
          <_>
            <feature>
              <rects>
                <_>
                  6 0 8 3 -1.</_>
                <_>
                  10 0 4 3 2.</_></rects>
              <tilted>0</tilted></feature>
            <threshold>0.0157209597527981</threshold>
            <left_val>-0.0256744306534529</left_val>
            <right_val>-0.6975411176681519</right_val></_></_>
        <_>
          <_>
            <feature>
              <rects>
                <_>
                  16 1 2 2 -1.</_>
                <_>
                  16 2 2 1 2.</_></rects>
              <tilted>0</tilted></feature>
            <threshold>2.6283410261385143e-004</threshold>
            <left_node>1</left_node>
            <right_val>0.2018222957849503</right_val></_>
          <_>
            <feature>
              <rects>
                <_>
                  8 0 12 3 -1.</_>
                <_>
                  12 1 4 1 9.</_></rects>
              <tilted>0</tilted></feature>
            <threshold>0.0527446009218693</threshold>
            <left_val>-0.3788937032222748</left_val>
            <right_val>0.3704200983047485</right_val></_></_>
        <_>
          <_>
            <feature>
              <rects>
                <_>
                  3 0 4 2 -1.</_>
                <_>
                  4 0 2 2 2.</_></rects>
              <tilted>0</tilted></feature>
            <threshold>-1.0263579897582531e-003</threshold>
            <left_val>-0.4188408851623535</left_val>
            <right_node>1</right_node></_>
          <_>
            <feature>
              <rects>
                <_>
                  18 0 2 3 -1.</_>
                <_>
                  18 0 1 3 2.</_></rects>
              <tilted>1</tilted></feature>
            <threshold>-7.0793810300529003e-003</threshold>
            <left_val>-0.5157377123832703</left_val>
            <right_val>0.1820354014635086</right_val></_></_>
        <_>
          <_>
            <feature>
              <rects>
                <_>
                  8 12 12 2 -1.</_>
                <_>
                  8 13 12 1 2.</_></rects>
              <tilted>0</tilted></feature>
            <threshold>2.2386189084500074e-003</threshold>
            <left_node>1</left_node>
            <right_val>0.2987892925739288</right_val></_>
          <_>
            <feature>
              <rects>
                <_>
                  5 0 1 2 -1.</_>
                <_>
                  5 1 1 1 2.</_></rects>
              <tilted>0</tilted></feature>
            <threshold>4.9610280257184058e-005</threshold>
            <left_val>-0.4446425139904022</left_val>
            <right_val>0.0391821898519993</right_val></_></_>
        <_>
          <_>
            <feature>
              <rects>
                <_>
                  11 4 5 8 -1.</_>
                <_>
                  11 4 5 4 2.</_></rects>
              <tilted>1</tilted></feature>
            <threshold>-0.0746816769242287</threshold>
            <left_val>-0.6581181287765503</left_val>
            <right_node>1</right_node></_>
          <_>
            <feature>
              <rects>
                <_>
                  11 7 9 4 -1.</_>
                <_>
                  11 9 9 2 2.</_></rects>
              <tilted>0</tilted></feature>
            <threshold>-0.0131299300119281</threshold>
            <left_val>-0.3166263103485107</left_val>
            <right_val>0.1982281953096390</right_val></_></_>
        <_>
          <_>
            <feature>
              <rects>
                <_>
                  6 1 6 8 -1.</_>
                <_>
                  6 1 3 4 2.</_>
                <_>
                  9 5 3 4 2.</_></rects>
              <tilted>0</tilted></feature>
            <threshold>-0.0121102202683687</threshold>
            <left_val>0.2838766872882843</left_val>
            <right_node>1</right_node></_>
          <_>
            <feature>
              <rects>
                <_>
                  8 16 10 3 -1.</_>
                <_>
                  13 16 5 3 2.</_></rects>
              <tilted>0</tilted></feature>
            <threshold>-0.0688706263899803</threshold>
            <left_val>0.3897897899150848</left_val>
            <right_val>-0.2908510863780975</right_val></_></_></trees>
      <stage_threshold>-0.6729708909988403</stage_threshold>
      <parent>7</parent>
      <next>-1</next></_>
    <_>
      <trees>
        <_>
          <_>
            <feature>
              <rects>
                <_>
                  0 10 1 9 -1.</_>
                <_>
                  0 13 1 3 3.</_></rects>
              <tilted>0</tilted></feature>
            <threshold>-0.0127229597419500</threshold>
            <left_val>-0.7132586240768433</left_val>
            <right_node>1</right_node></_>
          <_>
            <feature>
              <rects>
                <_>
                  7 4 3 16 -1.</_>
                <_>
                  8 4 1 16 3.</_></rects>
              <tilted>0</tilted></feature>
            <threshold>0.0359090492129326</threshold>
            <left_val>0.0826917067170143</left_val>
            <right_val>-0.9003844261169434</right_val></_></_>
        <_>
          <_>
            <feature>
              <rects>
                <_>
                  5 16 12 2 -1.</_>
                <_>
                  9 16 4 2 3.</_></rects>
              <tilted>0</tilted></feature>
            <threshold>-0.0366489998996258</threshold>
            <left_val>0.4405050873756409</left_val>
            <right_node>1</right_node></_>
          <_>
            <feature>
              <rects>
                <_>
                  6 14 4 2 -1.</_>
                <_>
                  6 14 4 1 2.</_></rects>
              <tilted>1</tilted></feature>
            <threshold>0.0262663401663303</threshold>
            <left_val>-0.1501495987176895</left_val>
            <right_val>0.6081894040107727</right_val></_></_>
        <_>
          <_>
            <feature>
              <rects>
                <_>
                  10 3 3 9 -1.</_>
                <_>
                  7 6 3 3 3.</_></rects>
              <tilted>1</tilted></feature>
            <threshold>0.0959592387080193</threshold>
            <left_node>1</left_node>
            <right_val>-0.9646924138069153</right_val></_>
          <_>
            <feature>
              <rects>
                <_>
                  11 6 3 2 -1.</_>
                <_>
                  12 6 1 2 3.</_></rects>
              <tilted>0</tilted></feature>
            <threshold>3.1967929098755121e-003</threshold>
            <left_val>-0.1200302019715309</left_val>
            <right_val>0.3432148993015289</right_val></_></_>
        <_>
          <_>
            <feature>
              <rects>
                <_>
                  12 5 4 12 -1.</_>
                <_>
                  12 5 2 6 2.</_>
                <_>
                  14 11 2 6 2.</_></rects>
              <tilted>0</tilted></feature>
            <threshold>-8.4919482469558716e-003</threshold>
            <left_val>0.2153548002243042</left_val>
            <right_node>1</right_node></_>
          <_>
            <feature>
              <rects>
                <_>
                  10 3 5 4 -1.</_>
                <_>
                  9 4 5 2 2.</_></rects>
              <tilted>1</tilted></feature>
            <threshold>-0.0129075795412064</threshold>
            <left_val>0.2431316971778870</left_val>
            <right_val>-0.3452045917510986</right_val></_></_>
        <_>
          <_>
            <feature>
              <rects>
                <_>
                  4 14 3 5 -1.</_>
                <_>
                  5 14 1 5 3.</_></rects>
              <tilted>0</tilted></feature>
            <threshold>-9.9054258316755295e-003</threshold>
            <left_val>-0.6875103712081909</left_val>
            <right_node>1</right_node></_>
          <_>
            <feature>
              <rects>
                <_>
                  10 0 8 4 -1.</_>
                <_>
                  9 1 8 2 2.</_></rects>
              <tilted>1</tilted></feature>
            <threshold>-0.0127568701282144</threshold>
            <left_val>0.3369303941726685</left_val>
            <right_val>-0.0689336508512497</right_val></_></_>
        <_>
          <_>
            <feature>
              <rects>
                <_>
                  14 4 1 6 -1.</_>
                <_>
                  12 6 1 2 3.</_></rects>
              <tilted>1</tilted></feature>
            <threshold>0.0137022500857711</threshold>
            <left_val>-0.1268415004014969</left_val>
            <right_node>1</right_node></_>
          <_>
            <feature>
              <rects>
                <_>
                  11 3 6 10 -1.</_>
                <_>
                  11 3 3 5 2.</_>
                <_>
                  14 8 3 5 2.</_></rects>
              <tilted>0</tilted></feature>
            <threshold>0.0221439506858587</threshold>
            <left_val>0.5093442201614380</left_val>
            <right_val>-0.9999874234199524</right_val></_></_>
        <_>
          <_>
            <feature>
              <rects>
                <_>
                  4 8 4 10 -1.</_>
                <_>
                  4 13 4 5 2.</_></rects>
              <tilted>0</tilted></feature>
            <threshold>0.0261498596519232</threshold>
            <left_node>1</left_node>
            <right_val>-0.5435708165168762</right_val></_>
          <_>
            <feature>
              <rects>
                <_>
                  13 2 3 3 -1.</_>
                <_>
                  14 3 1 3 3.</_></rects>
              <tilted>1</tilted></feature>
            <threshold>-0.0136702395975590</threshold>
            <left_val>-0.5806022286415100</left_val>
            <right_val>0.1592839062213898</right_val></_></_>
        <_>
          <_>
            <feature>
              <rects>
                <_>
                  3 10 8 2 -1.</_>
                <_>
                  3 10 8 1 2.</_></rects>
              <tilted>1</tilted></feature>
            <threshold>-0.0120750498026609</threshold>
            <left_val>0.4100111126899719</left_val>
            <right_node>1</right_node></_>
          <_>
            <feature>
              <rects>
                <_>
                  5 10 2 6 -1.</_>
                <_>
                  5 10 1 3 2.</_>
                <_>
                  6 13 1 3 2.</_></rects>
              <tilted>0</tilted></feature>
            <threshold>2.9513819608837366e-003</threshold>
            <left_val>-0.2619755864143372</left_val>
            <right_val>0.2495290935039520</right_val></_></_>
        <_>
          <_>
            <feature>
              <rects>
                <_>
                  14 18 3 2 -1.</_>
                <_>
                  15 18 1 2 3.</_></rects>
              <tilted>0</tilted></feature>
            <threshold>6.9208778440952301e-003</threshold>
            <left_node>1</left_node>
            <right_val>-0.9999418854713440</right_val></_>
          <_>
            <feature>
              <rects>
                <_>
                  2 13 2 6 -1.</_>
                <_>
                  2 15 2 2 3.</_></rects>
              <tilted>0</tilted></feature>
            <threshold>-7.8841038048267365e-003</threshold>
            <left_val>-0.4862788915634155</left_val>
            <right_val>0.1329531967639923</right_val></_></_>
        <_>
          <_>
            <feature>
              <rects>
                <_>
                  10 10 2 1 -1.</_>
                <_>
                  11 10 1 1 2.</_></rects>
              <tilted>0</tilted></feature>
            <threshold>3.7878958974033594e-003</threshold>
            <left_node>1</left_node>
            <right_val>-0.9999917149543762</right_val></_>
          <_>
            <feature>
              <rects>
                <_>
                  12 5 3 2 -1.</_>
                <_>
                  13 5 1 2 3.</_></rects>
              <tilted>0</tilted></feature>
            <threshold>2.0842170342803001e-003</threshold>
            <left_val>-0.0965628474950790</left_val>
            <right_val>0.3480981886386871</right_val></_></_>
        <_>
          <_>
            <feature>
              <rects>
                <_>
                  2 12 1 4 -1.</_>
                <_>
                  2 14 1 2 2.</_></rects>
              <tilted>0</tilted></feature>
            <threshold>-5.3428229875862598e-004</threshold>
            <left_node>1</left_node>
            <right_val>-0.2056929022073746</right_val></_>
          <_>
            <feature>
              <rects>
                <_>
                  7 0 4 1 -1.</_>
                <_>
                  8 0 2 1 2.</_></rects>
              <tilted>0</tilted></feature>
            <threshold>-1.3716559624299407e-003</threshold>
            <left_val>-0.5885428786277771</left_val>
            <right_val>0.2857863008975983</right_val></_></_>
        <_>
          <_>
            <feature>
              <rects>
                <_>
                  6 1 6 4 -1.</_>
                <_>
                  6 1 3 4 2.</_></rects>
              <tilted>1</tilted></feature>
            <threshold>-0.0381996594369411</threshold>
            <left_val>0.3031021952629089</left_val>
            <right_node>1</right_node></_>
          <_>
            <feature>
              <rects>
                <_>
                  3 0 11 16 -1.</_>
                <_>
                  3 8 11 8 2.</_></rects>
              <tilted>0</tilted></feature>
            <threshold>-0.1125108003616333</threshold>
            <left_val>0.1195003986358643</left_val>
            <right_val>-0.5087463259696960</right_val></_></_>
        <_>
          <_>
            <feature>
              <rects>
                <_>
                  4 4 16 2 -1.</_>
                <_>
                  4 4 8 1 2.</_>
                <_>
                  12 5 8 1 2.</_></rects>
              <tilted>0</tilted></feature>
            <threshold>-0.0100981602445245</threshold>
            <left_val>-0.6777287721633911</left_val>
            <right_node>1</right_node></_>
          <_>
            <feature>
              <rects>
                <_>
                  5 9 4 4 -1.</_>
                <_>
                  5 11 4 2 2.</_></rects>
              <tilted>0</tilted></feature>
            <threshold>0.0100771002471447</threshold>
            <left_val>-0.0419897586107254</left_val>
            <right_val>0.5349091887474060</right_val></_></_>
        <_>
          <_>
            <feature>
              <rects>
                <_>
                  5 7 5 6 -1.</_>
                <_>
                  5 9 5 2 3.</_></rects>
              <tilted>0</tilted></feature>
            <threshold>0.0222606100142002</threshold>
            <left_node>1</left_node>
            <right_val>0.4232499003410339</right_val></_>
          <_>
            <feature>
              <rects>
                <_>
                  0 14 3 6 -1.</_>
                <_>
                  1 14 1 6 3.</_></rects>
              <tilted>0</tilted></feature>
            <threshold>4.1151461191475391e-003</threshold>
            <left_val>-7.1527808904647827e-003</left_val>
            <right_val>-0.7094380855560303</right_val></_></_></trees>
      <stage_threshold>-0.8315370082855225</stage_threshold>
      <parent>8</parent>
      <next>-1</next></_>
    <_>
      <trees>
        <_>
          <_>
            <feature>
              <rects>
                <_>
                  2 10 7 8 -1.</_>
                <_>
                  2 14 7 4 2.</_></rects>
              <tilted>0</tilted></feature>
            <threshold>-0.0965099632740021</threshold>
            <left_val>-0.6734675168991089</left_val>
            <right_node>1</right_node></_>
          <_>
            <feature>
              <rects>
                <_>
                  8 16 2 3 -1.</_>
                <_>
                  8 17 2 1 3.</_></rects>
              <tilted>0</tilted></feature>
            <threshold>-5.3416411392390728e-003</threshold>
            <left_val>-0.6216195225715637</left_val>
            <right_val>0.1047706007957459</right_val></_></_>
        <_>
          <_>
            <feature>
              <rects>
                <_>
                  1 0 18 3 -1.</_>
                <_>
                  7 0 6 3 3.</_></rects>
              <tilted>0</tilted></feature>
            <threshold>0.0936591029167175</threshold>
            <left_node>1</left_node>
            <right_val>-0.6006447076797485</right_val></_>
          <_>
            <feature>
              <rects>
                <_>
                  6 7 1 4 -1.</_>
                <_>
                  6 7 1 2 2.</_></rects>
              <tilted>1</tilted></feature>
            <threshold>8.1335790455341339e-003</threshold>
            <left_val>0.1159391999244690</left_val>
            <right_val>-0.3918839097023010</right_val></_></_>
        <_>
          <_>
            <feature>
              <rects>
                <_>
                  9 5 4 3 -1.</_>
                <_>
                  8 6 4 1 3.</_></rects>
              <tilted>1</tilted></feature>
            <threshold>-9.6969883888959885e-003</threshold>
            <left_node>1</left_node>
            <right_val>-0.1056410968303680</right_val></_>
          <_>
            <feature>
              <rects>
                <_>
                  9 5 8 4 -1.</_>
                <_>
                  9 7 8 2 2.</_></rects>
              <tilted>0</tilted></feature>
            <threshold>-0.0189950205385685</threshold>
            <left_val>-0.8927915096282959</left_val>
            <right_val>0.4521340131759644</right_val></_></_>
        <_>
          <_>
            <feature>
              <rects>
                <_>
                  9 7 2 2 -1.</_>
                <_>
                  10 7 1 2 2.</_></rects>
              <tilted>0</tilted></feature>
            <threshold>-1.5431189676746726e-003</threshold>
            <left_val>0.2626417875289917</left_val>
            <right_node>1</right_node></_>
          <_>
            <feature>
              <rects>
                <_>
                  11 2 5 3 -1.</_>
                <_>
                  10 3 5 1 3.</_></rects>
              <tilted>1</tilted></feature>
            <threshold>9.5529071986675262e-003</threshold>
            <left_val>-0.2889164090156555</left_val>
            <right_val>0.2457627058029175</right_val></_></_>
        <_>
          <_>
            <feature>
              <rects>
                <_>
                  5 13 6 6 -1.</_>
                <_>
                  5 13 3 3 2.</_>
                <_>
                  8 16 3 3 2.</_></rects>
              <tilted>0</tilted></feature>
            <threshold>0.0123938303440809</threshold>
            <left_node>1</left_node>
            <right_val>0.2703619897365570</right_val></_>
          <_>
            <feature>
              <rects>
                <_>
                  15 6 1 2 -1.</_>
                <_>
                  15 7 1 1 2.</_></rects>
              <tilted>0</tilted></feature>
            <threshold>3.9557710988447070e-004</threshold>
            <left_val>-0.0395901016891003</left_val>
            <right_val>-0.6701061725616455</right_val></_></_>
        <_>
          <_>
            <feature>
              <rects>
                <_>
                  1 2 4 3 -1.</_>
                <_>
                  3 2 2 3 2.</_></rects>
              <tilted>0</tilted></feature>
            <threshold>4.7818658640608191e-004</threshold>
            <left_val>-0.2416760027408600</left_val>
            <right_node>1</right_node></_>
          <_>
            <feature>
              <rects>
                <_>
                  8 12 4 4 -1.</_>
                <_>
                  9 13 2 4 2.</_></rects>
              <tilted>1</tilted></feature>
            <threshold>-0.0148956701159477</threshold>
            <left_val>-0.7372871041297913</left_val>
            <right_val>0.2447627037763596</right_val></_></_>
        <_>
          <_>
            <feature>
              <rects>
                <_>
                  9 12 4 4 -1.</_>
                <_>
                  8 13 4 2 2.</_></rects>
              <tilted>1</tilted></feature>
            <threshold>-9.9648758769035339e-003</threshold>
            <left_val>0.3337734937667847</left_val>
            <right_node>1</right_node></_>
          <_>
            <feature>
              <rects>
                <_>
                  14 12 4 4 -1.</_>
                <_>
                  15 13 2 4 2.</_></rects>
              <tilted>1</tilted></feature>
            <threshold>-9.1659957543015480e-003</threshold>
            <left_val>0.1971098929643631</left_val>
            <right_val>-0.2870987951755524</right_val></_></_>
        <_>
          <_>
            <feature>
              <rects>
                <_>
                  8 16 3 1 -1.</_>
                <_>
                  9 17 1 1 3.</_></rects>
              <tilted>1</tilted></feature>
            <threshold>-5.2627432160079479e-003</threshold>
            <left_val>-0.6929010748863220</left_val>
            <right_node>1</right_node></_>
          <_>
            <feature>
              <rects>
                <_>
                  8 6 3 5 -1.</_>
                <_>
                  9 6 1 5 3.</_></rects>
              <tilted>0</tilted></feature>
            <threshold>-4.1911709122359753e-003</threshold>
            <left_val>0.3721801042556763</left_val>
            <right_val>-0.0592837482690811</right_val></_></_>
        <_>
          <_>
            <feature>
              <rects>
                <_>
                  17 12 3 3 -1.</_>
                <_>
                  18 12 1 3 3.</_></rects>
              <tilted>0</tilted></feature>
            <threshold>-4.2150419903919101e-004</threshold>
            <left_val>-0.2654651105403900</left_val>
            <right_node>1</right_node></_>
          <_>
            <feature>
              <rects>
                <_>
                  17 16 3 4 -1.</_>
                <_>
                  18 16 1 4 3.</_></rects>
              <tilted>0</tilted></feature>
            <threshold>0.0105114495381713</threshold>
            <left_val>0.1896837949752808</left_val>
            <right_val>-0.9999275803565979</right_val></_></_>
        <_>
          <_>
            <feature>
              <rects>
                <_>
                  17 9 3 8 -1.</_>
                <_>
                  18 10 1 8 3.</_></rects>
              <tilted>1</tilted></feature>
            <threshold>0.0103256702423096</threshold>
            <left_node>1</left_node>
            <right_val>0.3085303008556366</right_val></_>
          <_>
            <feature>
              <rects>
                <_>
                  7 11 6 1 -1.</_>
                <_>
                  10 11 3 1 2.</_></rects>
              <tilted>0</tilted></feature>
            <threshold>-3.7670379970222712e-003</threshold>
            <left_val>0.1836304068565369</left_val>
            <right_val>-0.3280844092369080</right_val></_></_>
        <_>
          <_>
            <feature>
              <rects>
                <_>
                  1 11 4 1 -1.</_>
                <_>
                  2 12 2 1 2.</_></rects>
              <tilted>1</tilted></feature>
            <threshold>6.6623077727854252e-003</threshold>
            <left_node>1</left_node>
            <right_val>-0.6918221116065979</right_val></_>
          <_>
            <feature>
              <rects>
                <_>
                  2 8 3 1 -1.</_>
                <_>
                  3 8 1 1 3.</_></rects>
              <tilted>0</tilted></feature>
            <threshold>-9.3695482064504176e-005</threshold>
            <left_val>-0.2035949975252152</left_val>
            <right_val>0.2123325020074844</right_val></_></_>
        <_>
          <_>
            <feature>
              <rects>
                <_>
                  9 5 5 6 -1.</_>
                <_>
                  9 5 5 3 2.</_></rects>
              <tilted>1</tilted></feature>
            <threshold>-0.0555137507617474</threshold>
            <left_val>-0.8481857180595398</left_val>
            <right_node>1</right_node></_>
          <_>
            <feature>
              <rects>
                <_>
                  11 9 1 3 -1.</_>
                <_>
                  11 10 1 1 3.</_></rects>
              <tilted>0</tilted></feature>
            <threshold>-8.0811500083655119e-004</threshold>
            <left_val>0.3424665033817291</left_val>
            <right_val>-0.0871052220463753</right_val></_></_>
        <_>
          <_>
            <feature>
              <rects>
                <_>
                  7 2 1 4 -1.</_>
                <_>
                  7 3 1 2 2.</_></rects>
              <tilted>0</tilted></feature>
            <threshold>-9.1659327154047787e-005</threshold>
            <left_node>1</left_node>
            <right_val>0.1408881992101669</right_val></_>
          <_>
            <feature>
              <rects>
                <_>
                  6 10 8 4 -1.</_>
                <_>
                  6 10 4 2 2.</_>
                <_>
                  10 12 4 2 2.</_></rects>
              <tilted>0</tilted></feature>
            <threshold>-0.0141356699168682</threshold>
            <left_val>0.3327651023864746</left_val>
            <right_val>-0.4742454886436462</right_val></_></_></trees>
      <stage_threshold>-0.7694929838180542</stage_threshold>
      <parent>9</parent>
      <next>-1</next></_>
    <_>
      <trees>
        <_>
          <_>
            <feature>
              <rects>
                <_>
                  0 0 3 2 -1.</_>
                <_>
                  0 1 3 1 2.</_></rects>
              <tilted>0</tilted></feature>
            <threshold>6.5654958598315716e-004</threshold>
            <left_node>1</left_node>
            <right_val>0.2049901038408279</right_val></_>
          <_>
            <feature>
              <rects>
                <_>
                  8 2 6 9 -1.</_>
                <_>
                  10 2 2 9 3.</_></rects>
              <tilted>0</tilted></feature>
            <threshold>0.0212053097784519</threshold>
            <left_val>-0.3426068127155304</left_val>
            <right_val>0.1626366972923279</right_val></_></_>
        <_>
          <_>
            <feature>
              <rects>
                <_>
                  8 15 2 2 -1.</_>
                <_>
                  9 15 1 2 2.</_></rects>
              <tilted>0</tilted></feature>
            <threshold>-2.7222459902986884e-004</threshold>
            <left_val>0.1761247068643570</left_val>
            <right_node>1</right_node></_>
          <_>
            <feature>
              <rects>
                <_>
                  10 13 1 6 -1.</_>
                <_>
                  10 15 1 2 3.</_></rects>
              <tilted>0</tilted></feature>
            <threshold>1.7163340235128999e-003</threshold>
            <left_val>-0.4711042940616608</left_val>
            <right_val>0.0932851731777191</right_val></_></_>
        <_>
          <_>
            <feature>
              <rects>
                <_>
                  1 18 16 2 -1.</_>
                <_>
                  9 18 8 2 2.</_></rects>
              <tilted>0</tilted></feature>
            <threshold>0.0335965193808079</threshold>
            <left_node>1</left_node>
            <right_val>0.3306778073310852</right_val></_>
          <_>
            <feature>
              <rects>
                <_>
                  18 17 2 2 -1.</_>
                <_>
                  18 18 2 1 2.</_></rects>
              <tilted>0</tilted></feature>
            <threshold>-2.0723960187751800e-004</threshold>
            <left_val>0.0842440500855446</left_val>
            <right_val>-0.3933948874473572</right_val></_></_>
        <_>
          <_>
            <feature>
              <rects>
                <_>
                  0 17 12 3 -1.</_>
                <_>
                  4 17 4 3 3.</_></rects>
              <tilted>0</tilted></feature>
            <threshold>0.0337553098797798</threshold>
            <left_node>1</left_node>
            <right_val>0.3253091871738434</right_val></_>
          <_>
            <feature>
              <rects>
                <_>
                  5 14 2 3 -1.</_>
                <_>
                  5 15 2 1 3.</_></rects>
              <tilted>0</tilted></feature>
            <threshold>5.7457137154415250e-004</threshold>
            <left_val>-0.3962867856025696</left_val>
            <right_val>0.0567191317677498</right_val></_></_>
        <_>
          <_>
            <feature>
              <rects>
                <_>
                  3 13 2 6 -1.</_>
                <_>
                  3 15 2 2 3.</_></rects>
              <tilted>0</tilted></feature>
            <threshold>0.0149004701524973</threshold>
            <left_node>1</left_node>
            <right_val>-0.7908828258514404</right_val></_>
          <_>
            <feature>
              <rects>
                <_>
                  1 18 6 1 -1.</_>
                <_>
                  4 18 3 1 2.</_></rects>
              <tilted>0</tilted></feature>
            <threshold>-4.7233658842742443e-003</threshold>
            <left_val>0.4607748985290527</left_val>
            <right_val>-0.0292695891112089</right_val></_></_>
        <_>
          <_>
            <feature>
              <rects>
                <_>
                  6 16 14 4 -1.</_>
                <_>
                  6 17 14 2 2.</_></rects>
              <tilted>0</tilted></feature>
            <threshold>0.0142547199502587</threshold>
            <left_node>1</left_node>
            <right_val>-0.5807672739028931</right_val></_>
          <_>
            <feature>
              <rects>
                <_>
                  3 14 3 3 -1.</_>
                <_>
                  4 15 1 3 3.</_></rects>
              <tilted>1</tilted></feature>
            <threshold>8.7173283100128174e-003</threshold>
            <left_val>0.1354839056730270</left_val>
            <right_val>-0.5694990754127502</right_val></_></_>
        <_>
          <_>
            <feature>
              <rects>
                <_>
                  14 14 6 4 -1.</_>
                <_>
                  17 14 3 4 2.</_></rects>
              <tilted>0</tilted></feature>
            <threshold>-0.0240737106651068</threshold>
            <left_val>0.3532668948173523</left_val>
            <right_node>1</right_node></_>
          <_>
            <feature>
              <rects>
                <_>
                  10 15 9 3 -1.</_>
                <_>
                  13 15 3 3 3.</_></rects>
              <tilted>0</tilted></feature>
            <threshold>-8.1690894439816475e-003</threshold>
            <left_val>0.0925111472606659</left_val>
            <right_val>-0.3599300980567932</right_val></_></_>
        <_>
          <_>
            <feature>
              <rects>
                <_>
                  11 1 4 2 -1.</_>
                <_>
                  11 1 4 1 2.</_></rects>
              <tilted>1</tilted></feature>
            <threshold>0.0104748299345374</threshold>
            <left_node>1</left_node>
            <right_val>0.4142380058765411</right_val></_>
          <_>
            <feature>
              <rects>
                <_>
                  4 0 8 10 -1.</_>
                <_>
                  4 0 4 5 2.</_>
                <_>
                  8 5 4 5 2.</_></rects>
              <tilted>0</tilted></feature>
            <threshold>-0.0360871814191341</threshold>
            <left_val>0.2920239865779877</left_val>
            <right_val>-0.2135339975357056</right_val></_></_>
        <_>
          <_>
            <feature>
              <rects>
                <_>
                  8 1 9 5 -1.</_>
                <_>
                  11 1 3 5 3.</_></rects>
              <tilted>0</tilted></feature>
            <threshold>0.0516768395900726</threshold>
            <left_node>1</left_node>
            <right_val>-0.7862573862075806</right_val></_>
          <_>
            <feature>
              <rects>
                <_>
                  11 3 2 2 -1.</_>
                <_>
                  11 3 1 2 2.</_></rects>
              <tilted>1</tilted></feature>
            <threshold>5.0724809989333153e-003</threshold>
            <left_val>0.1686587035655975</left_val>
            <right_val>-0.3750964999198914</right_val></_></_>
        <_>
          <_>
