<?xml version="1.0"?>
<opencv_storage>
<point type_id="opencv-haar-classifier">
  <size>
    20 20</size>
  <stages>
    <_>
      <trees>
        <_>
          <_>
            <feature>
              <rects>
                <_>
                  19 16 1 4 -1.</_>
                <_>
                  19 18 1 2 2.</_></rects>
              <tilted>0</tilted></feature>
            <threshold>-1.7378480406478047e-003</threshold>
            <left_val>0.4379130005836487</left_val>
            <right_node>1</right_node></_>
          <_>
            <feature>
              <rects>
                <_>
                  19 10 1 8 -1.</_>
                <_>
                  19 14 1 4 2.</_></rects>
              <tilted>0</tilted></feature>
            <threshold>-7.4986550025641918e-003</threshold>
            <left_val>0.2763665914535523</left_val>
            <right_val>-0.6068726181983948</right_val></_></_>
        <_>
          <_>
            <feature>
              <rects>
                <_>
                  8 9 4 3 -1.</_>
                <_>
                  10 9 2 3 2.</_></rects>
              <tilted>0</tilted></feature>
            <threshold>-2.9423870146274567e-003</threshold>
            <left_val>0.3794080913066864</left_val>
            <right_node>1</right_node></_>
          <_>
            <feature>
              <rects>
                <_>
                  11 7 4 3 -1.</_>
                <_>
                  10 8 4 1 3.</_></rects>
              <tilted>1</tilted></feature>
            <threshold>0.0163880493491888</threshold>
            <left_val>-0.5320550203323364</left_val>
            <right_val>0.4800625145435333</right_val></_></_>
        <_>
          <_>
            <feature>
              <rects>
                <_>
                  0 0 3 2 -1.</_>
                <_>
                  0 1 3 1 2.</_></rects>
              <tilted>0</tilted></feature>
            <threshold>7.3720578802749515e-004</threshold>
            <left_node>1</left_node>
            <right_val>0.3123146891593933</right_val></_>
          <_>
            <feature>
              <rects>
                <_>
                  13 5 7 2 -1.</_>
                <_>
                  13 5 7 1 2.</_></rects>
              <tilted>1</tilted></feature>
            <threshold>-0.0215071495622396</threshold>
            <left_val>0.6318002939224243</left_val>
            <right_val>-0.4942750036716461</right_val></_></_>
        <_>
          <_>
            <feature>
              <rects>
                <_>
                  8 6 7 6 -1.</_>
                <_>
                  8 9 7 3 2.</_></rects>
              <tilted>0</tilted></feature>
            <threshold>-0.0367279201745987</threshold>
            <left_val>0.5546839833259583</left_val>
            <right_node>1</right_node></_>
          <_>
            <feature>
              <rects>
                <_>
                  8 8 5 6 -1.</_>
                <_>
                  8 10 5 2 3.</_></rects>
              <tilted>0</tilted></feature>
            <threshold>0.0134256798774004</threshold>
            <left_val>-0.5086178779602051</left_val>
            <right_val>0.2536796033382416</right_val></_></_>
        <_>
          <_>
            <feature>
              <rects>
                <_>
                  0 16 4 4 -1.</_>
                <_>
                  0 18 4 2 2.</_></rects>
              <tilted>0</tilted></feature>
            <threshold>-2.9980810359120369e-003</threshold>
            <left_val>0.2828749120235443</left_val>
            <right_node>1</right_node></_>
          <_>
            <feature>
              <rects>
                <_>
                  13 0 1 18 -1.</_>
                <_>
                  13 6 1 6 3.</_></rects>
              <tilted>0</tilted></feature>
            <threshold>0.0407186485826969</threshold>
            <left_val>-0.4501534998416901</left_val>
            <right_val>0.6442369818687439</right_val></_></_>
        <_>
          <_>
            <feature>
              <rects>
                <_>
                  16 8 4 8 -1.</_>
                <_>
                  16 10 4 4 2.</_></rects>
              <tilted>0</tilted></feature>
            <threshold>-0.0122798001393676</threshold>
            <left_val>0.4176796972751617</left_val>
            <right_node>1</right_node></_>
          <_>
            <feature>
              <rects>
                <_>
                  16 6 3 12 -1.</_>
                <_>
                  16 10 3 4 3.</_></rects>
              <tilted>0</tilted></feature>
            <threshold>0.0318340994417667</threshold>
            <left_val>-0.4793986976146698</left_val>
            <right_val>0.2459529042243958</right_val></_></_>
        <_>
          <_>
            <feature>
              <rects>
                <_>
                  8 2 3 18 -1.</_>
                <_>
                  9 2 1 18 3.</_></rects>
              <tilted>0</tilted></feature>
            <threshold>0.0176725108176470</threshold>
            <left_node>1</left_node>
            <right_val>-0.7794734835624695</right_val></_>
          <_>
            <feature>
              <rects>
                <_>
                  0 8 16 10 -1.</_>
                <_>
                  0 8 8 5 2.</_>
                <_>
                  8 13 8 5 2.</_></rects>
              <tilted>0</tilted></feature>
            <threshold>0.0710407122969627</threshold>
            <left_val>-0.0680902227759361</left_val>
            <right_val>0.5443295240402222</right_val></_></_>
        <_>
          <_>
            <feature>
              <rects>
                <_>
                  6 8 11 8 -1.</_>
                <_>
                  6 12 11 4 2.</_></rects>
              <tilted>0</tilted></feature>
            <threshold>-0.0777706205844879</threshold>
            <left_val>0.3508712947368622</left_val>
            <right_node>1</right_node></_>
          <_>
            <feature>
              <rects>
                <_>
                  7 6 7 6 -1.</_>
                <_>
                  7 6 7 3 2.</_></rects>
              <tilted>1</tilted></feature>
            <threshold>-0.1060222014784813</threshold>
            <left_val>0.5095025897026062</left_val>
            <right_val>-0.3495177924633026</right_val></_></_>
        <_>
          <_>
            <feature>
              <rects>
                <_>
                  10 6 6 4 -1.</_>
                <_>
                  12 6 2 4 3.</_></rects>
              <tilted>0</tilted></feature>
            <threshold>-0.0157708991318941</threshold>
            <left_val>0.5023766160011292</left_val>
            <right_node>1</right_node></_>
          <_>
            <feature>
              <rects>
                <_>
                  13 6 2 6 -1.</_>
                <_>
                  13 6 1 3 2.</_>
                <_>
                  14 9 1 3 2.</_></rects>
              <tilted>0</tilted></feature>
            <threshold>4.4289510697126389e-003</threshold>
            <left_val>-0.3737556040287018</left_val>
            <right_val>0.4400948882102966</right_val></_></_></trees>
      <stage_threshold>-1.6298769712448120</stage_threshold>
      <parent>-1</parent>
      <next>-1</next></_>
    <_>
      <trees>
        <_>
          <_>
            <feature>
              <rects>
                <_>
                  13 7 3 4 -1.</_>
                <_>
                  12 8 3 2 2.</_></rects>
              <tilted>1</tilted></feature>
            <threshold>-0.0210166499018669</threshold>
            <left_val>0.7106357812881470</left_val>
            <right_node>1</right_node></_>
          <_>
            <feature>
              <rects>
                <_>
                  13 4 7 2 -1.</_>
                <_>
                  13 4 7 1 2.</_></rects>
              <tilted>1</tilted></feature>
            <threshold>0.0247604791074991</threshold>
            <left_val>-0.2540014088153839</left_val>
            <right_val>0.6492776274681091</right_val></_></_>
        <_>
          <_>
            <feature>
              <rects>
                <_>
                  19 18 1 2 -1.</_>
                <_>
                  19 19 1 1 2.</_></rects>
              <tilted>0</tilted></feature>
            <threshold>-2.7309489087201655e-004</threshold>
            <left_val>0.3118464052677155</left_val>
            <right_node>1</right_node></_>
          <_>
            <feature>
              <rects>
                <_>
                  9 2 8 16 -1.</_>
                <_>
                  9 6 8 8 2.</_></rects>
              <tilted>0</tilted></feature>
            <threshold>0.2410929054021835</threshold>
            <left_val>-0.3858331143856049</left_val>
            <right_val>0.8169782757759094</right_val></_></_>
        <_>
          <_>
            <feature>
              <rects>
                <_>
                  8 6 8 6 -1.</_>
                <_>
                  8 6 8 3 2.</_></rects>
              <tilted>1</tilted></feature>
            <threshold>-0.1481923013925552</threshold>
            <left_val>0.7220935225486755</left_val>
            <right_node>1</right_node></_>
          <_>
            <feature>
              <rects>
                <_>
                  15 5 5 8 -1.</_>
                <_>
                  13 7 5 4 2.</_></rects>
              <tilted>1</tilted></feature>
            <threshold>0.0727378875017166</threshold>
            <left_val>-0.2540209889411926</left_val>
            <right_val>0.4809511899948120</right_val></_></_>
        <_>
          <_>
            <feature>
              <rects>
                <_>
                  0 0 1 4 -1.</_>
                <_>
                  0 2 1 2 2.</_></rects>
              <tilted>0</tilted></feature>
            <threshold>6.4106157515197992e-004</threshold>
            <left_val>-0.2347002029418945</left_val>
            <right_node>1</right_node></_>
          <_>
            <feature>
              <rects>
                <_>
                  2 8 4 12 -1.</_>
                <_>
                  3 8 2 12 2.</_></rects>
              <tilted>0</tilted></feature>
            <threshold>-8.0561637878417969e-003</threshold>
            <left_val>-0.4827649891376495</left_val>
            <right_val>0.4129701852798462</right_val></_></_>
        <_>
          <_>
            <feature>
              <rects>
                <_>
                  12 19 4 1 -1.</_>
                <_>
                  13 19 2 1 2.</_></rects>
              <tilted>0</tilted></feature>
            <threshold>-2.3320829495787621e-003</threshold>
            <left_val>-0.7850322127342224</left_val>
            <right_node>1</right_node></_>
          <_>
            <feature>
              <rects>
                <_>
                  11 7 4 3 -1.</_>
                <_>
                  12 7 2 3 2.</_></rects>
              <tilted>0</tilted></feature>
            <threshold>-2.6678189169615507e-003</threshold>
            <left_val>0.3847739100456238</left_val>
            <right_val>-0.1120096966624260</right_val></_></_>
        <_>
          <_>
            <feature>
              <rects>
                <_>
                  7 9 8 2 -1.</_>
                <_>
                  7 10 8 1 2.</_></rects>
              <tilted>0</tilted></feature>
            <threshold>-5.6096902117133141e-003</threshold>
            <left_val>0.3570890128612518</left_val>
            <right_node>1</right_node></_>
          <_>
            <feature>
              <rects>
                <_>
                  2 9 14 4 -1.</_>
                <_>
                  2 9 7 2 2.</_>
                <_>
                  9 11 7 2 2.</_></rects>
              <tilted>0</tilted></feature>
            <threshold>0.0234074406325817</threshold>
            <left_val>-0.3470134139060974</left_val>
            <right_val>0.3354811966419220</right_val></_></_>
        <_>
          <_>
            <feature>
              <rects>
                <_>
                  3 0 3 20 -1.</_>
                <_>
                  4 0 1 20 3.</_></rects>
              <tilted>0</tilted></feature>
            <threshold>0.0209353305399418</threshold>
            <left_node>1</left_node>
            <right_val>-0.7640455961227417</right_val></_>
          <_>
            <feature>
              <rects>
                <_>
                  4 7 3 4 -1.</_>
                <_>
                  4 8 3 2 2.</_></rects>
              <tilted>0</tilted></feature>
            <threshold>-4.6045980416238308e-003</threshold>
            <left_val>0.4456113874912262</left_val>
            <right_val>-0.0816934779286385</right_val></_></_>
        <_>
          <_>
            <feature>
              <rects>
                <_>
                  5 10 6 4 -1.</_>
                <_>
                  5 10 3 2 2.</_>
                <_>
                  8 12 3 2 2.</_></rects>
              <tilted>0</tilted></feature>
            <threshold>-0.0134647199884057</threshold>
            <left_val>0.4934759140014648</left_val>
            <right_node>1</right_node></_>
          <_>
            <feature>
              <rects>
                <_>
                  0 12 5 6 -1.</_>
                <_>
                  0 15 5 3 2.</_></rects>
              <tilted>0</tilted></feature>
            <threshold>-1.8933829851448536e-003</threshold>
            <left_val>0.0862145870923996</left_val>
            <right_val>-0.4643911123275757</right_val></_></_>
        <_>
          <_>
            <feature>
              <rects>
                <_>
                  16 0 3 2 -1.</_>
                <_>
                  16 1 3 1 2.</_></rects>
              <tilted>0</tilted></feature>
            <threshold>3.7696788785979152e-004</threshold>
            <left_node>1</left_node>
            <right_val>0.2521576881408691</right_val></_>
          <_>
            <feature>
              <rects>
                <_>
                  5 4 9 4 -1.</_>
                <_>
                  4 5 9 2 2.</_></rects>
              <tilted>1</tilted></feature>
            <threshold>0.0357008799910545</threshold>
            <left_val>-0.3369059860706329</left_val>
            <right_val>0.5899901986122131</right_val></_></_>
        <_>
          <_>
            <feature>
              <rects>
                <_>
                  18 15 2 1 -1.</_>
                <_>
                  18 15 1 1 2.</_></rects>
              <tilted>1</tilted></feature>
            <threshold>-1.6655409708619118e-003</threshold>
            <left_val>-0.5187112092971802</left_val>
            <right_node>1</right_node></_>
          <_>
            <feature>
              <rects>
                <_>
                  3 0 12 16 -1.</_>
                <_>
                  7 0 4 16 3.</_></rects>
              <tilted>0</tilted></feature>
            <threshold>-0.1524281054735184</threshold>
            <left_val>-0.8862023949623108</left_val>
            <right_val>0.1653144061565399</right_val></_></_>
        <_>
          <_>
            <feature>
              <rects>
                <_>
                  10 4 8 6 -1.</_>
                <_>
                  12 4 4 6 2.</_></rects>
              <tilted>0</tilted></feature>
            <threshold>0.0162982903420925</threshold>
            <left_node>1</left_node>
            <right_val>0.3449136912822723</right_val></_>
          <_>
            <feature>
              <rects>
                <_>
                  10 8 9 2 -1.</_>
                <_>
                  13 8 3 2 3.</_></rects>
              <tilted>0</tilted></feature>
            <threshold>-9.4375014305114746e-003</threshold>
            <left_val>0.2088986039161682</left_val>
            <right_val>-0.4506124854087830</right_val></_></_>
        <_>
          <_>
            <feature>
              <rects>
                <_>
                  0 5 8 9 -1.</_>
                <_>
                  4 5 4 9 2.</_></rects>
              <tilted>0</tilted></feature>
            <threshold>-0.0194584894925356</threshold>
            <left_node>1</left_node>
            <right_val>-0.2124833017587662</right_val></_>
          <_>
            <feature>
              <rects>
                <_>
                  1 3 8 2 -1.</_>
                <_>
                  3 3 4 2 2.</_></rects>
              <tilted>0</tilted></feature>
            <threshold>-4.5878100208938122e-003</threshold>
            <left_val>-0.4419125914573669</left_val>
            <right_val>0.4562268853187561</right_val></_></_>
        <_>
          <_>
            <feature>
              <rects>
                <_>
                  17 3 3 17 -1.</_>
                <_>
                  18 3 1 17 3.</_></rects>
              <tilted>0</tilted></feature>
            <threshold>-0.0131854601204395</threshold>
            <left_val>-0.5403571128845215</left_val>
            <right_node>1</right_node></_>
          <_>
            <feature>
              <rects>
                <_>
                  17 1 3 7 -1.</_>
                <_>
                  18 1 1 7 3.</_></rects>
              <tilted>0</tilted></feature>
            <threshold>7.2904620319604874e-003</threshold>
            <left_val>0.2039272934198380</left_val>
            <right_val>-0.4619559943675995</right_val></_></_>
        <_>
          <_>
            <feature>
              <rects>
                <_>
                  1 6 8 3 -1.</_>
                <_>
                  1 7 8 1 3.</_></rects>
              <tilted>0</tilted></feature>
            <threshold>-0.0105128102004528</threshold>
            <left_val>0.3871167898178101</left_val>
            <right_node>1</right_node></_>
          <_>
            <feature>
              <rects>
                <_>
                  14 10 6 6 -1.</_>
                <_>
                  14 10 3 3 2.</_>
                <_>
                  17 13 3 3 2.</_></rects>
              <tilted>0</tilted></feature>
            <threshold>0.0139360101893544</threshold>
            <left_val>-0.2911758124828339</left_val>
            <right_val>0.2749860882759094</right_val></_></_>
        <_>
          <_>
            <feature>
              <rects>
                <_>
                  18 10 2 6 -1.</_>
                <_>
                  18 13 2 3 2.</_></rects>
              <tilted>0</tilted></feature>
            <threshold>-0.0131603199988604</threshold>
            <left_val>0.3710860013961792</left_val>
            <right_node>1</right_node></_>
          <_>
            <feature>
              <rects>
                <_>
                  18 17 2 2 -1.</_>
                <_>
                  18 18 2 1 2.</_></rects>
              <tilted>0</tilted></feature>
            <threshold>-6.9261377211660147e-004</threshold>
            <left_val>0.1046276018023491</left_val>
            <right_val>-0.4202573895454407</right_val></_></_>
        <_>
          <_>
            <feature>
              <rects>
                <_>
                  6 15 3 1 -1.</_>
                <_>
                  7 16 1 1 3.</_></rects>
              <tilted>1</tilted></feature>
            <threshold>-3.9743771776556969e-003</threshold>
            <left_val>-0.5587707757949829</left_val>
            <right_node>1</right_node></_>
          <_>
            <feature>
              <rects>
                <_>
                  7 3 3 16 -1.</_>
                <_>
                  8 3 1 16 3.</_></rects>
              <tilted>0</tilted></feature>
            <threshold>-0.0148799801245332</threshold>
            <left_val>-0.6015179753303528</left_val>
            <right_val>0.1523562967777252</right_val></_></_>
        <_>
          <_>
            <feature>
              <rects>
                <_>
                  13 5 4 2 -1.</_>
                <_>
                  14 5 2 2 2.</_></rects>
              <tilted>0</tilted></feature>
            <threshold>-4.6294010244309902e-003</threshold>
            <left_val>0.4392929077148438</left_val>
            <right_node>1</right_node></_>
          <_>
            <feature>
              <rects>
                <_>
                  13 4 2 8 -1.</_>
                <_>
                  13 4 1 4 2.</_>
                <_>
                  14 8 1 4 2.</_></rects>
              <tilted>0</tilted></feature>
            <threshold>-2.8457809239625931e-003</threshold>
            <left_val>0.2733989953994751</left_val>
            <right_val>-0.3089179098606110</right_val></_></_></trees>
      <stage_threshold>-1.6693409681320190</stage_threshold>
      <parent>0</parent>
      <next>-1</next></_>
    <_>
      <trees>
        <_>
          <_>
            <feature>
              <rects>
                <_>
                  6 4 12 12 -1.</_>
                <_>
                  10 8 4 4 9.</_></rects>
              <tilted>0</tilted></feature>
            <threshold>-0.4107022881507874</threshold>
            <left_val>0.8366307020187378</left_val>
            <right_node>1</right_node></_>
          <_>
            <feature>
              <rects>
                <_>
                  13 0 3 20 -1.</_>
                <_>
                  13 5 3 10 2.</_></rects>
              <tilted>0</tilted></feature>
            <threshold>0.0907813310623169</threshold>
            <left_val>-0.2742359042167664</left_val>
            <right_val>0.5149970054626465</right_val></_></_>
        <_>
          <_>
            <feature>
              <rects>
                <_>
                  0 11 16 4 -1.</_>
                <_>
                  8 11 8 4 2.</_></rects>
              <tilted>0</tilted></feature>
            <threshold>-0.0965281426906586</threshold>
            <left_val>0.5348743796348572</left_val>
            <right_node>1</right_node></_>
          <_>
            <feature>
              <rects>
                <_>
                  11 6 4 6 -1.</_>
                <_>
                  9 8 4 2 3.</_></rects>
              <tilted>1</tilted></feature>
            <threshold>0.0474691502749920</threshold>
            <left_val>-0.2665472924709320</left_val>
            <right_val>0.3691410124301910</right_val></_></_>
        <_>
          <_>
            <feature>
              <rects>
                <_>
                  0 0 3 20 -1.</_>
                <_>
                  1 0 1 20 3.</_></rects>
              <tilted>0</tilted></feature>
            <threshold>0.0183194801211357</threshold>
            <left_node>1</left_node>
            <right_val>-0.7127491235733032</right_val></_>
          <_>
            <feature>
              <rects>
                <_>
                  19 17 1 2 -1.</_>
                <_>
                  19 18 1 1 2.</_></rects>
              <tilted>0</tilted></feature>
            <threshold>-3.9250240661203861e-004</threshold>
            <left_val>0.3051432967185974</left_val>
            <right_val>-0.1633948981761932</right_val></_></_>
        <_>
          <_>
            <feature>
              <rects>
                <_>
                  3 7 5 3 -1.</_>
                <_>
                  3 8 5 1 3.</_></rects>
              <tilted>0</tilted></feature>
            <threshold>-0.0136069701984525</threshold>
            <left_val>0.5134559869766235</left_val>
            <right_node>1</right_node></_>
          <_>
            <feature>
              <rects>
                <_>
                  3 8 6 3 -1.</_>
                <_>
                  3 9 6 1 3.</_></rects>
              <tilted>0</tilted></feature>
            <threshold>-7.3654418811202049e-003</threshold>
            <left_val>0.3221847116947174</left_val>
            <right_val>-0.3151369988918304</right_val></_></_>
        <_>
          <_>
            <feature>
              <rects>
                <_>
                  17 15 3 4 -1.</_>
                <_>
                  18 15 1 4 3.</_></rects>
              <tilted>0</tilted></feature>
            <threshold>-4.5571657828986645e-003</threshold>
            <left_val>-0.5848103761672974</left_val>
            <right_node>1</right_node></_>
          <_>
            <feature>
              <rects>
                <_>
                  17 14 3 6 -1.</_>
                <_>
                  18 14 1 6 3.</_></rects>
              <tilted>0</tilted></feature>
            <threshold>5.9584090486168861e-003</threshold>
            <left_val>0.2095887959003449</left_val>
            <right_val>-0.5026776790618897</right_val></_></_>
        <_>
          <_>
            <feature>
              <rects>
                <_>
                  13 4 6 4 -1.</_>
                <_>
                  12 5 6 2 2.</_></rects>
              <tilted>1</tilted></feature>
            <threshold>-0.0262252409011126</threshold>
            <left_val>0.4793199002742767</left_val>
            <right_node>1</right_node></_>
          <_>
            <feature>
              <rects>
                <_>
                  6 7 7 8 -1.</_>
                <_>
                  6 11 7 4 2.</_></rects>
              <tilted>0</tilted></feature>
            <threshold>-0.0630885511636734</threshold>
            <left_val>0.2543560862541199</left_val>
            <right_val>-0.2866210043430328</right_val></_></_>
        <_>
          <_>
            <feature>
              <rects>
                <_>
                  15 5 5 4 -1.</_>
                <_>
                  15 5 5 2 2.</_></rects>
              <tilted>1</tilted></feature>
            <threshold>-0.0336137413978577</threshold>
            <left_val>0.4544293880462647</left_val>
            <right_node>1</right_node></_>
          <_>
            <feature>
              <rects>
                <_>
                  2 17 12 3 -1.</_>
                <_>
                  5 17 6 3 2.</_></rects>
              <tilted>0</tilted></feature>
            <threshold>-0.0219557192176580</threshold>
            <left_val>-0.9034209251403809</left_val>
            <right_val>-0.0400657393038273</right_val></_></_>
        <_>
          <_>
            <feature>
              <rects>
                <_>
                  2 18 2 2 -1.</_>
                <_>
                  2 19 2 1 2.</_></rects>
              <tilted>0</tilted></feature>
            <threshold>-1.9063240324612707e-004</threshold>
            <left_node>1</left_node>
            <right_val>-0.2728185951709747</right_val></_>
          <_>
            <feature>
              <rects>
                <_>
                  5 6 15 6 -1.</_>
                <_>
                  10 6 5 6 3.</_></rects>
              <tilted>0</tilted></feature>
            <threshold>-0.0370498411357403</threshold>
            <left_val>0.4651043117046356</left_val>
            <right_val>-0.0720010623335838</right_val></_></_>
        <_>
          <_>
            <feature>
              <rects>
                <_>
                  9 15 4 1 -1.</_>
                <_>
                  10 16 2 1 2.</_></rects>
              <tilted>1</tilted></feature>
            <threshold>6.0479529201984406e-003</threshold>
            <left_node>1</left_node>
            <right_val>-0.7504373192787170</right_val></_>
          <_>
            <feature>
              <rects>
                <_>
                  7 4 4 3 -1.</_>
                <_>
                  9 4 2 3 2.</_></rects>
              <tilted>0</tilted></feature>
            <threshold>-8.6529282853007317e-003</threshold>
            <left_val>-0.5133318901062012</left_val>
            <right_val>0.1693993061780930</right_val></_></_>
        <_>
          <_>
            <feature>
              <rects>
                <_>
                  15 4 5 4 -1.</_>
                <_>
                  14 5 5 2 2.</_></rects>
              <tilted>1</tilted></feature>
            <threshold>0.0375769883394241</threshold>
            <left_node>1</left_node>
            <right_val>0.6878672838211060</right_val></_>
          <_>
            <feature>
              <rects>
                <_>
                  2 0 3 16 -1.</_>
                <_>
                  2 8 3 8 2.</_></rects>
              <tilted>0</tilted></feature>
            <threshold>-0.1265783011913300</threshold>
            <left_val>0.7122713923454285</left_val>
            <right_val>-0.1459428966045380</right_val></_></_>
        <_>
          <_>
            <feature>
              <rects>
                <_>
                  19 18 1 2 -1.</_>
                <_>
                  19 19 1 1 2.</_></rects>
              <tilted>0</tilted></feature>
            <threshold>-4.2658171150833368e-004</threshold>
            <left_val>0.2465855926275253</left_val>
            <right_node>1</right_node></_>
          <_>
            <feature>
              <rects>
                <_>
                  14 14 6 4 -1.</_>
                <_>
                  14 14 3 2 2.</_>
                <_>
                  17 16 3 2 2.</_></rects>
              <tilted>0</tilted></feature>
            <threshold>-5.2591548301279545e-003</threshold>
            <left_val>0.2188781946897507</left_val>
            <right_val>-0.4280622899532318</right_val></_></_>
        <_>
          <_>
            <feature>
              <rects>
                <_>
                  17 0 3 6 -1.</_>
                <_>
                  18 0 1 6 3.</_></rects>
              <tilted>0</tilted></feature>
            <threshold>-7.7153211459517479e-003</threshold>
            <left_val>-0.5985370278358460</left_val>
            <right_node>1</right_node></_>
          <_>
            <feature>
              <rects>
                <_>
                  9 11 3 9 -1.</_>
                <_>
                  10 11 1 9 3.</_></rects>
              <tilted>0</tilted></feature>
            <threshold>0.0165228191763163</threshold>
            <left_val>0.1153101995587349</left_val>
            <right_val>-0.8638271093368530</right_val></_></_>
        <_>
          <_>
            <feature>
              <rects>
                <_>
                  2 1 3 12 -1.</_>
                <_>
                  2 5 3 4 3.</_></rects>
              <tilted>0</tilted></feature>
            <threshold>0.0575843006372452</threshold>
            <left_node>1</left_node>
            <right_val>-0.8318461775779724</right_val></_>
          <_>
            <feature>
              <rects>
                <_>
                  0 4 3 6 -1.</_>
                <_>
                  1 6 1 2 9.</_></rects>
              <tilted>0</tilted></feature>
            <threshold>-0.0291584692895412</threshold>
            <left_val>-0.7152757048606873</left_val>
            <right_val>0.0962435379624367</right_val></_></_>
        <_>
          <_>
            <feature>
              <rects>
                <_>
                  13 6 4 3 -1.</_>
                <_>
                  12 7 4 1 3.</_></rects>
              <tilted>1</tilted></feature>
            <threshold>0.0203979406505823</threshold>
            <left_node>1</left_node>
            <right_val>0.4998692870140076</right_val></_>
          <_>
            <feature>
              <rects>
                <_>
                  8 7 5 4 -1.</_>
                <_>
                  7 8 5 2 2.</_></rects>
              <tilted>1</tilted></feature>
            <threshold>-0.0274806395173073</threshold>
            <left_val>0.4402084052562714</left_val>
            <right_val>-0.1888470053672791</right_val></_></_>
        <_>
          <_>
            <feature>
              <rects>
                <_>
                  7 11 12 3 -1.</_>
                <_>
                  11 11 4 3 3.</_></rects>
              <tilted>0</tilted></feature>
            <threshold>-0.0576517917215824</threshold>
            <left_val>-0.8694863915443420</left_val>
            <right_node>1</right_node></_>
          <_>
            <feature>
              <rects>
                <_>
                  2 9 12 4 -1.</_>
                <_>
                  5 9 6 4 2.</_></rects>
              <tilted>0</tilted></feature>
            <threshold>-0.0407484695315361</threshold>
            <left_val>-0.7012466788291931</left_val>
            <right_val>0.1247401013970375</right_val></_></_>
        <_>
          <_>
            <feature>
              <rects>
                <_>
                  2 8 3 5 -1.</_>
                <_>
                  3 8 1 5 3.</_></rects>
              <tilted>0</tilted></feature>
            <threshold>-7.0272302255034447e-003</threshold>
            <left_val>-0.6408193111419678</left_val>
            <right_node>1</right_node></_>
          <_>
            <feature>
              <rects>
                <_>
                  18 0 2 8 -1.</_>
                <_>
                  18 2 2 4 2.</_></rects>
              <tilted>0</tilted></feature>
            <threshold>-0.0120310699567199</threshold>
            <left_val>-0.5781912207603455</left_val>
            <right_val>0.1163923963904381</right_val></_></_>
        <_>
          <_>
            <feature>
              <rects>
                <_>
                  1 7 7 4 -1.</_>
                <_>
                  1 8 7 2 2.</_></rects>
              <tilted>0</tilted></feature>
            <threshold>0.0118379304185510</threshold>
            <left_node>1</left_node>
            <right_val>0.3735210001468658</right_val></_>
          <_>
            <feature>
              <rects>
                <_>
                  1 9 14 6 -1.</_>
                <_>
                  1 9 7 3 2.</_>
                <_>
                  8 12 7 3 2.</_></rects>
              <tilted>0</tilted></feature>
            <threshold>0.0192336700856686</threshold>
            <left_val>-0.3278746902942658</left_val>
            <right_val>0.2496037930250168</right_val></_></_>
        <_>
          <_>
            <feature>
              <rects>
                <_>
                  2 19 18 1 -1.</_>
                <_>
                  11 19 9 1 2.</_></rects>
              <tilted>0</tilted></feature>
            <threshold>-0.0134422304108739</threshold>
            <left_val>0.2972630858421326</left_val>
            <right_node>1</right_node></_>
          <_>
            <feature>
              <rects>
                <_>
                  5 4 3 5 -1.</_>
                <_>
                  6 4 1 5 3.</_></rects>
              <tilted>0</tilted></feature>
            <threshold>5.7610268704593182e-003</threshold>
            <left_val>-0.0775002390146255</left_val>
            <right_val>-0.7992411851882935</right_val></_></_></trees>
      <stage_threshold>-1.6607220172882080</stage_threshold>
      <parent>1</parent>
      <next>-1</next></_>
    <_>
      <trees>
        <_>
          <_>
            <feature>
              <rects>
                <_>
                  6 4 12 12 -1.</_>
                <_>
                  10 8 4 4 9.</_></rects>
              <tilted>0</tilted></feature>
            <threshold>-0.4118017852306366</threshold>
            <left_val>0.7969074249267578</left_val>
            <right_node>1</right_node></_>
          <_>
            <feature>
              <rects>
                <_>
                  14 2 2 16 -1.</_>
                <_>
                  14 6 2 8 2.</_></rects>
              <tilted>0</tilted></feature>
            <threshold>0.0542775318026543</threshold>
            <left_val>-0.2421433031558991</left_val>
            <right_val>0.5202689766883850</right_val></_></_>
        <_>
          <_>
            <feature>
              <rects>
                <_>
                  3 2 3 18 -1.</_>
                <_>
                  4 2 1 18 3.</_></rects>
              <tilted>0</tilted></feature>
            <threshold>-7.0256171748042107e-003</threshold>
            <left_val>-0.4295985102653503</left_val>
            <right_node>1</right_node></_>
          <_>
            <feature>
              <rects>
                <_>
                  1 12 4 8 -1.</_>
                <_>
                  2 12 2 8 2.</_></rects>
              <tilted>0</tilted></feature>
            <threshold>-4.7776428982615471e-003</threshold>
            <left_val>-0.3521139919757843</left_val>
            <right_val>0.3037528991699219</right_val></_></_>
        <_>
          <_>
            <feature>
              <rects>
                <_>
                  8 8 4 4 -1.</_>
                <_>
                  7 9 4 2 2.</_></rects>
              <tilted>1</tilted></feature>
            <threshold>-0.0222125500440598</threshold>
            <left_val>0.4416706860065460</left_val>
            <right_node>1</right_node></_>
          <_>
            <feature>
              <rects>
                <_>
                  16 6 4 4 -1.</_>
                <_>
                  16 6 4 2 2.</_></rects>
              <tilted>1</tilted></feature>
            <threshold>-0.0408383086323738</threshold>
            <left_val>0.3430846035480499</left_val>
            <right_val>-0.2540881037712097</right_val></_></_>
        <_>
          <_>
            <feature>
              <rects>
                <_>
                  0 7 16 12 -1.</_>
                <_>
                  8 7 8 12 2.</_></rects>
              <tilted>0</tilted></feature>
            <threshold>-0.1407397985458374</threshold>
            <left_val>0.4053839147090912</left_val>
            <right_node>1</right_node></_>
          <_>
            <feature>
              <rects>
                <_>
                  0 18 16 2 -1.</_>
                <_>
                  8 18 8 2 2.</_></rects>
              <tilted>0</tilted></feature>
            <threshold>0.0276092290878296</threshold>
            <left_val>-0.2996088862419128</left_val>
            <right_val>0.2552973926067352</right_val></_></_>
        <_>
          <_>
            <feature>
              <rects>
                <_>
                  16 4 3 4 -1.</_>
                <_>
                  15 5 3 2 2.</_></rects>
              <tilted>1</tilted></feature>
            <threshold>0.0327156409621239</threshold>
            <left_node>1</left_node>
            <right_val>0.6844273805618286</right_val></_>
          <_>
            <feature>
              <rects>
                <_>
                  16 12 3 8 -1.</_>
                <_>
                  17 12 1 8 3.</_></rects>
              <tilted>0</tilted></feature>
            <threshold>-9.7029190510511398e-003</threshold>
            <left_val>-0.7390115857124329</left_val>
            <right_val>-0.0115433000028133</right_val></_></_>
        <_>
          <_>
            <feature>
              <rects>
                <_>
                  8 18 3 2 -1.</_>
                <_>
                  9 18 1 2 3.</_></rects>
              <tilted>0</tilted></feature>
            <threshold>-3.6414009518921375e-003</threshold>
            <left_val>-0.6397401094436646</left_val>
            <right_node>1</right_node></_>
          <_>
            <feature>
              <rects>
                <_>
                  16 0 3 20 -1.</_>
                <_>
                  17 0 1 20 3.</_></rects>
              <tilted>0</tilted></feature>
            <threshold>0.0199705101549625</threshold>
            <left_val>0.1474453061819077</left_val>
            <right_val>-0.6085829138755798</right_val></_></_>
        <_>
          <_>
            <feature>
              <rects>
                <_>
                  19 15 1 4 -1.</_>
                <_>
                  19 17 1 2 2.</_></rects>
              <tilted>0</tilted></feature>
            <threshold>-1.9553198944777250e-003</threshold>
            <left_val>0.2285173982381821</left_val>
            <right_node>1</right_node></_>
          <_>
            <feature>
              <rects>
                <_>
                  18 10 2 6 -1.</_>
                <_>
                  18 13 2 3 2.</_></rects>
              <tilted>0</tilted></feature>
            <threshold>-0.0140378102660179</threshold>
            <left_val>0.2108246982097626</left_val>
            <right_val>-0.4164484143257141</right_val></_></_>
        <_>
          <_>
            <feature>
              <rects>
                <_>
                  1 12 4 1 -1.</_>
                <_>
                  1 12 2 1 2.</_></rects>
              <tilted>1</tilted></feature>
            <threshold>-1.6632600454613566e-003</threshold>
            <left_val>-0.3593438863754273</left_val>
            <right_node>1</right_node></_>
          <_>
            <feature>
              <rects>
                <_>
                  1 13 6 4 -1.</_>
                <_>
                  1 15 6 2 2.</_></rects>
              <tilted>0</tilted></feature>
            <threshold>-0.0151035198941827</threshold>
            <left_val>-0.3410547971725464</left_val>
            <right_val>0.2697241902351379</right_val></_></_>
        <_>
          <_>
            <feature>
              <rects>
                <_>
                  4 2 4 18 -1.</_>
                <_>
                  5 2 2 18 2.</_></rects>
              <tilted>0</tilted></feature>
            <threshold>-0.0209382195025682</threshold>
            <left_val>-0.7088738083839417</left_val>
            <right_node>1</right_node></_>
          <_>
            <feature>
              <rects>
                <_>
                  6 1 4 19 -1.</_>
                <_>
                  7 1 2 19 2.</_></rects>
              <tilted>0</tilted></feature>
            <threshold>-0.0135202901437879</threshold>
            <left_val>-0.4629664123058319</left_val>
            <right_val>0.1697843968868256</right_val></_></_>
        <_>
          <_>
            <feature>
              <rects>
                <_>
                  15 5 5 4 -1.</_>
                <_>
                  14 6 5 2 2.</_></rects>
              <tilted>1</tilted></feature>
            <threshold>-0.0311098396778107</threshold>
            <left_val>0.5548050999641419</left_val>
            <right_node>1</right_node></_>
          <_>
            <feature>
              <rects>
                <_>
                  10 0 8 10 -1.</_>
                <_>
                  12 0 4 10 2.</_></rects>
              <tilted>0</tilted></feature>
            <threshold>0.0150563195347786</threshold>
            <left_val>-0.3039863109588623</left_val>
            <right_val>0.2126933038234711</right_val></_></_>
        <_>
          <_>
            <feature>
              <rects>
                <_>
                  2 0 2 2 -1.</_>
                <_>
                  2 0 1 2 2.</_></rects>
              <tilted>1</tilted></feature>
            <threshold>-1.7457379726693034e-004</threshold>
            <left_node>1</left_node>
            <right_val>-0.2870368957519531</right_val></_>
          <_>
            <feature>
              <rects>
                <_>
                  8 8 9 4 -1.</_>
                <_>
                  11 8 3 4 3.</_></rects>
              <tilted>0</tilted></feature>
            <threshold>-0.0123149398714304</threshold>
            <left_val>0.4536828100681305</left_val>
            <right_val>-0.0622000992298126</right_val></_></_>
        <_>
          <_>
            <feature>
              <rects>
                <_>
                  12 4 4 4 -1.</_>
                <_>
                  14 4 2 4 2.</_></rects>
              <tilted>0</tilted></feature>
            <threshold>-8.3643421530723572e-003</threshold>
            <left_val>0.3317637145519257</left_val>
            <right_node>1</right_node></_>
          <_>
            <feature>
              <rects>
                <_>
                  5 8 5 3 -1.</_>
                <_>
                  5 9 5 1 3.</_></rects>
              <tilted>0</tilted></feature>
            <threshold>-5.6523149833083153e-003</threshold>
            <left_val>0.2613936960697174</left_val>
            <right_val>-0.3001003861427307</right_val></_></_>
        <_>
          <_>
            <feature>
              <rects>
                <_>
                  1 7 10 3 -1.</_>
                <_>
                  1 8 10 1 3.</_></rects>
              <tilted>0</tilted></feature>
            <threshold>-0.0162175092846155</threshold>
            <left_val>0.4518944919109345</left_val>
            <right_node>1</right_node></_>
          <_>
            <feature>
              <rects>
                <_>
                  11 7 5 3 -1.</_>
                <_>
                  10 8 5 1 3.</_></rects>
              <tilted>1</tilted></feature>
            <threshold>0.0158196091651917</threshold>
            <left_val>-0.2483713030815125</left_val>
            <right_val>0.2818196117877960</right_val></_></_>
        <_>
          <_>
            <feature>
              <rects>
                <_>
                  4 0 16 2 -1.</_>
                <_>
                  4 0 8 2 2.</_></rects>
              <tilted>1</tilted></feature>
            <threshold>0.1928692013025284</threshold>
            <left_node>1</left_node>
            <right_val>0.8349266052246094</right_val></_>
          <_>
            <feature>
              <rects>
                <_>
                  9 18 8 2 -1.</_>
                <_>
                  9 18 4 1 2.</_>
                <_>
                  13 19 4 1 2.</_></rects>
              <tilted>0</tilted></feature>
            <threshold>2.7106930501759052e-003</threshold>
            <left_val>0.0537953898310661</left_val>
            <right_val>-0.4727351069450378</right_val></_></_>
        <_>
          <_>
            <feature>
              <rects>
                <_>
                  13 4 6 6 -1.</_>
                <_>
                  13 6 6 2 3.</_></rects>
              <tilted>0</tilted></feature>
            <threshold>0.0364396609365940</threshold>
            <left_node>1</left_node>
            <right_val>-0.6532999277114868</right_val></_>
          <_>
            <feature>
              <rects>
                <_>
                  0 2 9 15 -1.</_>
                <_>
                  3 7 3 5 9.</_></rects>
              <tilted>0</tilted></feature>
            <threshold>-0.1400986015796661</threshold>
            <left_val>-0.4523172080516815</left_val>
            <right_val>0.1453240066766739</right_val></_></_>
        <_>
          <_>
            <feature>
              <rects>
                <_>
                  1 12 5 2 -1.</_>
                <_>
                  1 13 5 1 2.</_></rects>
              <tilted>0</tilted></feature>
            <threshold>-4.5976052060723305e-003</threshold>
            <left_val>-0.4480193853378296</left_val>
            <right_node>1</right_node></_>
          <_>
            <feature>
              <rects>
                <_>
                  10 0 8 2 -1.</_>
                <_>
                  12 2 4 2 2.</_></rects>
              <tilted>1</tilted></feature>
            <threshold>0.0256323907524347</threshold>
            <left_val>0.1864410042762756</left_val>
            <right_val>-0.4431807994842529</right_val></_></_>
        <_>
          <_>
            <feature>
              <rects>
                <_>
                  1 18 2 2 -1.</_>
                <_>
                  1 19 2 1 2.</_></rects>
              <tilted>0</tilted></feature>
            <threshold>-3.9506828761659563e-004</threshold>
            <left_val>0.1992482990026474</left_val>
            <right_node>1</right_node></_>
          <_>
            <feature>
              <rects>
                <_>
                  6 6 2 3 -1.</_>
                <_>
                  6 7 2 1 3.</_></rects>
              <tilted>0</tilted></feature>
            <threshold>-6.0865827836096287e-003</threshold>
            <left_val>0.3683119118213654</left_val>
            <right_val>-0.3325338959693909</right_val></_></_>
        <_>
          <_>
            <feature>
              <rects>
                <_>
                  13 4 2 4 -1.</_>
                <_>
                  13 4 1 2 2.</_>
                <_>
                  14 6 1 2 2.</_></rects>
              <tilted>0</tilted></feature>
            <threshold>-4.0756938979029655e-003</threshold>
            <left_val>0.4250571131706238</left_val>
            <right_node>1</right_node></_>
          <_>
            <feature>
              <rects>
                <_>
                  0 15 1 4 -1.</_>
                <_>
                  0 17 1 2 2.</_></rects>
              <tilted>0</tilted></feature>
            <threshold>-5.8524939231574535e-004</threshold>
            <left_val>0.1116390973329544</left_val>
            <right_val>-0.3492416143417358</right_val></_></_>
        <_>
          <_>
            <feature>
              <rects>
                <_>
                  8 9 6 4 -1.</_>
                <_>
                  8 9 6 2 2.</_></rects>
              <tilted>1</tilted></feature>
            <threshold>0.0693702027201653</threshold>
            <left_node>1</left_node>
            <right_val>0.6153339743614197</right_val></_>
          <_>
            <feature>
              <rects>
                <_>
                  8 3 11 14 -1.</_>
                <_>
                  8 10 11 7 2.</_></rects>
              <tilted>0</tilted></feature>
            <threshold>-0.3279491066932678</threshold>
            <left_val>0.6181648969650269</left_val>
            <right_val>-0.1374011933803558</right_val></_></_>
        <_>
          <_>
            <feature>
              <rects>
                <_>
                  3 19 16 1 -1.</_>
                <_>
                  11 19 8 1 2.</_></rects>
              <tilted>0</tilted></feature>
            <threshold>-0.0124504202976823</threshold>
            <left_val>0.2784344851970673</left_val>
            <right_node>1</right_node></_>
          <_>
            <feature>
              <rects>
                <_>
                  16 3 4 15 -1.</_>
                <_>
                  16 8 4 5 3.</_></rects>
              <tilted>0</tilted></feature>
            <threshold>-0.0222260691225529</threshold>
            <left_val>0.1953870058059692</left_val>
            <right_val>-0.3571408987045288</right_val></_></_></trees>
      <stage_threshold>-1.5580140352249146</stage_threshold>
      <parent>2</parent>
      <next>-1</next></_>
    <_>
      <trees>
        <_>
          <_>
            <feature>
              <rects>
                <_>
                  2 4 18 12 -1.</_>
                <_>
                  8 8 6 4 9.</_></rects>
              <tilted>0</tilted></feature>
            <threshold>-0.5856112837791443</threshold>
            <left_val>0.7250378727912903</left_val>
            <right_node>1</right_node></_>
          <_>
            <feature>
              <rects>
                <_>
                  11 7 6 2 -1.</_>
                <_>
                  13 7 2 2 3.</_></rects>
              <tilted>0</tilted></feature>
            <threshold>0.0221272595226765</threshold>
            <left_val>-0.2189074009656906</left_val>
            <right_val>0.5897331833839417</right_val></_></_>
        <_>
          <_>
            <feature>
              <rects>
                <_>
                  9 7 4 3 -1.</_>
                <_>
                  8 8 4 1 3.</_></rects>
              <tilted>1</tilted></feature>
            <threshold>0.0215611401945353</threshold>
            <left_node>1</left_node>
            <right_val>0.5484473705291748</right_val></_>
          <_>
            <feature>
              <rects>
                <_>
                  10 6 6 4 -1.</_>
                <_>
                  12 6 2 4 3.</_></rects>
              <tilted>0</tilted></feature>
            <threshold>-0.0110551798716187</threshold>
            <left_val>0.2408968955278397</left_val>
            <right_val>-0.2473700940608978</right_val></_></_>
        <_>
          <_>
            <feature>
              <rects>
                <_>
                  0 8 3 9 -1.</_>
                <_>
                  0 11 3 3 3.</_></rects>
              <tilted>0</tilted></feature>
            <threshold>-0.0216640308499336</threshold>
            <left_val>-0.6080700755119324</left_val>
            <right_node>1</right_node></_>
          <_>
            <feature>
              <rects>
                <_>
                  12 0 4 3 -1.</_>
                <_>
                  14 0 2 3 2.</_></rects>
              <tilted>0</tilted></feature>
            <threshold>7.2712171822786331e-003</threshold>
            <left_val>0.1154029965400696</left_val>
            <right_val>-0.5723456144332886</right_val></_></_>
        <_>
          <_>
            <feature>
              <rects>
                <_>
                  1 4 8 1 -1.</_>
                <_>
                  3 4 4 1 2.</_></rects>
              <tilted>0</tilted></feature>
            <threshold>-5.2001890726387501e-003</threshold>
            <left_val>-0.6851379871368408</left_val>
            <right_node>1</right_node></_>
          <_>
            <feature>
              <rects>
                <_>
                  17 16 3 4 -1.</_>
                <_>
                  18 16 1 4 3.</_></rects>
              <tilted>0</tilted></feature>
            <threshold>-4.5394981279969215e-003</threshold>
            <left_val>-0.5255085825920105</left_val>
            <right_val>0.1269613951444626</right_val></_></_>
        <_>
          <_>
            <feature>
              <rects>
                <_>
                  14 6 6 4 -1.</_>
                <_>
                  13 7 6 2 2.</_></rects>
              <tilted>1</tilted></feature>
            <threshold>0.0225855298340321</threshold>
            <left_node>1</left_node>
            <right_val>0.4026953876018524</right_val></_>
          <_>
            <feature>
              <rects>
                <_>
                  12 9 8 10 -1.</_>
                <_>
                  12 9 4 5 2.</_>
                <_>
                  16 14 4 5 2.</_></rects>
              <tilted>0</tilted></feature>
            <threshold>-0.0224313996732235</threshold>
            <left_val>0.2091922014951706</left_val>
            <right_val>-0.3317233920097351</right_val></_></_>
        <_>
          <_>
            <feature>
              <rects>
                <_>
                  11 10 2 1 -1.</_>
                <_>
                  12 10 1 1 2.</_></rects>
              <tilted>0</tilted></feature>
            <threshold>-5.6765042245388031e-004</threshold>
            <left_val>0.2556541860103607</left_val>
            <right_node>1</right_node></_>
          <_>
            <feature>
              <rects>
                <_>
                  6 6 8 6 -1.</_>
                <_>
                  6 6 8 3 2.</_></rects>
              <tilted>1</tilted></feature>
            <threshold>0.1844857931137085</threshold>
            <left_val>-0.2506211996078491</left_val>
            <right_val>0.7505170702934265</right_val></_></_>
        <_>
          <_>
            <feature>
              <rects>
                <_>
                  0 0 2 2 -1.</_>
                <_>
                  0 1 2 1 2.</_></rects>
              <tilted>0</tilted></feature>
            <threshold>5.4026307770982385e-004</threshold>
            <left_node>1</left_node>
            <right_val>0.2321534007787705</right_val></_>
          <_>
            <feature>
              <rects>
                <_>
                  9 2 6 4 -1.</_>
                <_>
                  9 2 3 4 2.</_></rects>
              <tilted>1</tilted></feature>
            <threshold>-0.0549259893596172</threshold>
            <left_val>0.3821673095226288</left_val>
            <right_val>-0.3216252028942108</right_val></_></_>
        <_>
          <_>
            <feature>
              <rects>
                <_>
                  16 0 4 2 -1.</_>
                <_>
                  18 0 2 2 2.</_></rects>
              <tilted>0</tilted></feature>
            <threshold>-6.3032808247953653e-004</threshold>
            <left_node>1</left_node>
            <right_val>-0.2113520056009293</right_val></_>
          <_>
            <feature>
              <rects>
                <_>
                  17 1 3 8 -1.</_>
                <_>
                  18 1 1 8 3.</_></rects>
              <tilted>0</tilted></feature>
            <threshold>5.6649260222911835e-003</threshold>
            <left_val>0.3013716042041779</left_val>
            <right_val>-0.5262184739112854</right_val></_></_>
        <_>
          <_>
            <feature>
              <rects>
                <_>
                  19 18 1 2 -1.</_>
                <_>
                  19 19 1 1 2.</_></rects>
              <tilted>0</tilted></feature>
            <threshold>-5.9286288887960836e-005</threshold>
            <left_node>1</left_node>
            <right_val>-0.2983899116516113</right_val></_>
          <_>
            <feature>
              <rects>
                <_>
                  17 17 3 2 -1.</_>
                <_>
                  17 18 3 1 2.</_></rects>
              <tilted>0</tilted></feature>
            <threshold>-1.2355650542303920e-003</threshold>
            <left_val>0.3381212055683136</left_val>
            <right_val>-0.1115432977676392</right_val></_></_>
        <_>
          <_>
            <feature>
              <rects>
                <_>
                  3 6 12 10 -1.</_>
                <_>
                  7 6 4 10 3.</_></rects>
              <tilted>0</tilted></feature>
            <threshold>0.1219976991415024</threshold>
            <left_node>1</left_node>
            <right_val>-0.7414677143096924</right_val></_>
          <_>
            <feature>
              <rects>
                <_>
                  14 17 1 2 -1.</_>
                <_>
                  14 17 1 1 2.</_></rects>
              <tilted>1</tilted></feature>
            <threshold>3.4726120065897703e-003</threshold>
            <left_val>0.1296565979719162</left_val>
            <right_val>-0.5130292177200317</right_val></_></_>
        <_>
          <_>
            <feature>
              <rects>
                <_>
                  10 14 4 5 -1.</_>
                <_>
                  11 14 2 5 2.</_></rects>
              <tilted>0</tilted></feature>
            <threshold>7.2586149908602238e-003</threshold>
            <left_node>1</left_node>
            <right_val>-0.5688160061836243</right_val></_>
          <_>
            <feature>
              <rects>
                <_>
                  4 3 12 10 -1.</_>
                <_>
                  7 3 6 10 2.</_></rects>
              <tilted>0</tilted></feature>
            <threshold>-0.1093005985021591</threshold>
            <left_val>-0.9257066845893860</left_val>
            <right_val>0.0924447625875473</right_val></_></_>
        <_>
          <_>
            <feature>
              <rects>
                <_>
                  8 7 5 4 -1.</_>
                <_>
                  7 8 5 2 2.</_></rects>
              <tilted>1</tilted></feature>
            <threshold>-0.0309823099523783</threshold>
            <left_val>0.4984619021415710</left_val>
            <right_node>1</right_node></_>
          <_>
            <feature>
              <rects>
                <_>
                  5 6 5 6 -1.</_>
                <_>
                  5 8 5 2 3.</_></rects>
              <tilted>0</tilted></feature>
            <threshold>-0.0214096903800964</threshold>
            <left_val>0.2905605137348175</left_val>
            <right_val>-0.1971105039119721</right_val></_></_>
        <_>
          <_>
            <feature>
              <rects>
                <_>
                  3 7 4 4 -1.</_>
                <_>
                  3 8 4 2 2.</_></rects>
              <tilted>0</tilted></feature>
            <threshold>5.8287600986659527e-003</threshold>
            <left_node>1</left_node>
            <right_val>0.3272227048873901</right_val></_>
          <_>
            <feature>
              <rects>
                <_>
                  10 6 4 4 -1.</_>
                <_>
                  10 6 2 4 2.</_></rects>
              <tilted>1</tilted></feature>
            <threshold>0.0283532403409481</threshold>
            <left_val>-0.2765679955482483</left_val>
            <right_val>0.2746537923812866</right_val></_></_>
        <_>
          <_>
            <feature>
              <rects>
                <_>
                  3 6 1 3 -1.</_>
                <_>
                  2 7 1 1 3.</_></rects>
              <tilted>1</tilted></feature>
            <threshold>4.1982168331742287e-003</threshold>
            <left_node>1</left_node>
            <right_val>-0.4866586029529572</right_val></_>
          <_>
            <feature>
              <rects>
                <_>
                  0 14 4 6 -1.</_>
                <_>
                  1 14 2 6 2.</_></rects>
              <tilted>0</tilted></feature>
            <threshold>-7.3404791764914989e-003</threshold>
            <left_val>-0.5085960030555725</left_val>
            <right_val>0.1538558006286621</right_val></_></_>
        <_>
          <_>
            <feature>
              <rects>
                <_>
                  14 14 6 6 -1.</_>
                <_>
                  14 14 3 3 2.</_>
                <_>
                  17 17 3 3 2.</_></rects>
              <tilted>0</tilted></feature>
            <threshold>-5.9834970161318779e-003</threshold>
            <left_val>0.2082380056381226</left_val>
            <right_node>1</right_node></_>
          <_>
            <feature>
              <rects>
                <_>
                  14 3 1 8 -1.</_>
                <_>
                  12 5 1 4 2.</_></rects>
              <tilted>1</tilted></feature>
            <threshold>3.8910011062398553e-004</threshold>
            <left_val>0.0586943402886391</left_val>
            <right_val>-0.4770177900791168</right_val></_></_>
        <_>
          <_>
            <feature>
              <rects>
                <_>
                  16 3 4 4 -1.</_>
                <_>
                  15 4 4 2 2.</_></rects>
              <tilted>1</tilted></feature>
            <threshold>0.0397856906056404</threshold>
            <left_node>1</left_node>
            <right_val>0.6801722049713135</right_val></_>
          <_>
            <feature>
              <rects>
                <_>
                  3 10 8 4 -1.</_>
                <_>
                  7 10 4 4 2.</_></rects>
              <tilted>0</tilted></feature>
            <threshold>0.0441601388156414</threshold>
            <left_val>-0.1239928975701332</left_val>
            <right_val>0.4810391962528229</right_val></_></_>
        <_>
          <_>
            <feature>
              <rects>
                <_>
                  0 5 10 12 -1.</_>
                <_>
                  0 8 10 6 2.</_></rects>
              <tilted>0</tilted></feature>
            <threshold>0.1544879972934723</threshold>
            <left_node>1</left_node>
            <right_val>-0.8761786222457886</right_val></_>
          <_>
            <feature>
              <rects>
                <_>
                  3 8 2 10 -1.</_>
                <_>
                  3 13 2 5 2.</_></rects>
              <tilted>0</tilted></feature>
            <threshold>0.0239460691809654</threshold>
            <left_val>0.1058828979730606</left_val>
            <right_val>-0.6042854785919190</right_val></_></_>
        <_>
          <_>
            <feature>
              <rects>
                <_>
                  12 6 4 14 -1.</_>
                <_>
                  12 13 4 7 2.</_></rects>
              <tilted>0</tilted></feature>
            <threshold>0.1099916994571686</threshold>
            <left_node>1</left_node>
            <right_val>0.5470657944679260</right_val></_>
          <_>
            <feature>
              <rects>
                <_>
                  12 8 4 12 -1.</_>
                <_>
                  12 14 4 6 2.</_></rects>
              <tilted>0</tilted></feature>
            <threshold>-0.0308109000325203</threshold>
            <left_val>0.1032153964042664</left_val>
            <right_val>-0.2926501929759979</right_val></_></_>
        <_>
          <_>
            <feature>
              <rects>
                <_>
                  0 4 10 12 -1.</_>
                <_>
                  5 4 5 12 2.</_></rects>
              <tilted>0</tilted></feature>
            <threshold>-0.0314365103840828</threshold>
            <left_node>1</left_node>
            <right_val>-0.1703308969736099</right_val></_>
          <_>
            <feature>
              <rects>
                <_>
                  0 3 9 12 -1.</_>
                <_>
                  3 7 3 4 9.</_></rects>
              <tilted>0</tilted></feature>
            <threshold>0.0827207565307617</threshold>
            <left_val>0.3945611119270325</left_val>
            <right_val>-0.3516520857810974</right_val></_></_>
        <_>
          <_>
            <feature>
              <rects>
                <_>
                  2 1 8 2 -1.</_>
                <_>
                  2 1 4 2 2.</_></rects>
              <tilted>1</tilted></feature>
            <threshold>-0.0277773104608059</threshold>
            <left_val>0.2972810864448547</left_val>
            <right_node>1</right_node></_>
          <_>
            <feature>
              <rects>
                <_>
                  18 1 2 13 -1.</_>
                <_>
                  19 1 1 13 2.</_></rects>
              <tilted>0</tilted></feature>
            <threshold>8.8828001171350479e-003</threshold>
            <left_val>-0.0296135004609823</left_val>
            <right_val>-0.7206929922103882</right_val></_></_>
        <_>
          <_>
            <feature>
              <rects>
                <_>
                  1 0 6 1 -1.</_>
                <_>
                  3 2 2 1 3.</_></rects>
              <tilted>1</tilted></feature>
            <threshold>5.8756058569997549e-004</threshold>
            <left_node>1</left_node>
            <right_val>0.1478123962879181</right_val></_>
          <_>
            <feature>
              <rects>
                <_>
                  16 10 4 4 -1.</_>
                <_>
                  16 10 2 2 2.</_>
                <_>
                  18 12 2 2 2.</_></rects>
              <tilted>0</tilted></feature>
            <threshold>-6.8535688333213329e-003</threshold>
            <left_val>0.2701674103736877</left_val>
            <right_val>-0.3621484041213989</right_val></_></_></trees>
      <stage_threshold>-1.4486470222473145</stage_threshold>
      <parent>3</parent>
      <next>-1</next></_>
    <_>
      <trees>
        <_>
          <_>
            <feature>
              <rects>
                <_>
                  9 6 6 5 -1.</_>
                <_>
                  11 6 2 5 3.</_></rects>
              <tilted>0</tilted></feature>
            <threshold>-0.0137163903564215</threshold>
            <left_val>0.3484561145305634</left_val>
            <right_node>1</right_node></_>
          <_>
            <feature>
              <rects>
                <_>
                  12 6 4 2 -1.</_>
                <_>
                  13 6 2 2 2.</_></rects>
              <tilted>0</tilted></feature>
            <threshold>-3.8173310458660126e-003</threshold>
            <left_val>0.3545962870121002</left_val>
            <right_val>-0.4197820127010346</right_val></_></_>
        <_>
          <_>
            <feature>
              <rects>
                <_>
                  7 4 8 12 -1.</_>
                <_>
                  7 8 8 4 3.</_></rects>
              <tilted>0</tilted></feature>
            <threshold>-0.1888723969459534</threshold>
            <left_val>0.6435793042182922</left_val>
            <right_node>1</right_node></_>
          <_>
            <feature>
              <rects>
                <_>
                  13 5 4 4 -1.</_>
                <_>
                  15 5 2 4 2.</_></rects>
              <tilted>0</tilted></feature>
            <threshold>-0.0144518902525306</threshold>
            <left_val>0.3590339124202728</left_val>
            <right_val>-0.2219007015228272</right_val></_></_>
        <_>
          <_>
            <feature>
              <rects>
                <_>
                  12 9 4 2 -1.</_>
                <_>
                  13 9 2 2 2.</_></rects>
              <tilted>0</tilted></feature>
            <threshold>-1.9386010244488716e-003</threshold>
            <left_val>0.2572210133075714</left_val>
            <right_node>1</right_node></_>
          <_>
            <feature>
              <rects>
                <_>
                  13 10 1 2 -1.</_>
                <_>
                  13 11 1 1 2.</_></rects>
              <tilted>0</tilted></feature>
            <threshold>-4.1793720447458327e-004</threshold>
            <left_val>0.0855736508965492</left_val>
            <right_val>-0.4279598891735077</right_val></_></_>
        <_>
          <_>
            <feature>
              <rects>
                <_>
                  6 2 12 10 -1.</_>
                <_>
                  9 2 6 10 2.</_></rects>
              <tilted>0</tilted></feature>
            <threshold>-0.1223893016576767</threshold>
            <left_val>-0.8884549140930176</left_val>
            <right_node>1</right_node></_>
          <_>
            <feature>
              <rects>
                <_>
                  1 18 3 2 -1.</_>
                <_>
                  1 19 3 1 2.</_></rects>
              <tilted>0</tilted></feature>
            <threshold>-7.7005499042570591e-004</threshold>
            <left_val>0.2285681962966919</left_val>
            <right_val>-0.1467203944921494</right_val></_></_>
        <_>
          <_>
            <feature>
              <rects>
                <_>
                  2 8 5 3 -1.</_>
                <_>
                  2 9 5 1 3.</_></rects>
              <tilted>0</tilted></feature>
            <threshold>-0.0141599299386144</threshold>
            <left_val>0.4296985864639282</left_val>
            <right_node>1</right_node></_>
          <_>
            <feature>
              <rects>
                <_>
                  1 7 7 3 -1.</_>
                <_>
                  1 8 7 1 3.</_></rects>
              <tilted>0</tilted></feature>
            <threshold>-0.0123606398701668</threshold>
            <left_val>0.3401547074317932</left_val>
            <right_val>-0.2202509939670563</right_val></_></_>
        <_>
          <_>
            <feature>
              <rects>
                <_>
                  10 6 5 4 -1.</_>
                <_>
                  9 7 5 2 2.</_></rects>
              <tilted>1</tilted></feature>
            <threshold>0.0213656201958656</threshold>
            <left_node>1</left_node>
            <right_val>0.3547577857971191</right_val></_>
          <_>
            <feature>
              <rects>
                <_>
                  11 8 9 3 -1.</_>
                <_>
                  14 8 3 3 3.</_></rects>
              <tilted>0</tilted></feature>
            <threshold>-9.3018505722284317e-003</threshold>
            <left_val>0.1652597934007645</left_val>
            <right_val>-0.3044666051864624</right_val></_></_>
        <_>
          <_>
            <feature>
              <rects>
                <_>
                  8 10 8 5 -1.</_>
                <_>
                  10 10 4 5 2.</_></rects>
              <tilted>0</tilted></feature>
            <threshold>-3.6511168582364917e-004</threshold>
            <left_node>1</left_node>
            <right_val>-0.2535316944122315</right_val></_>
          <_>
            <feature>
              <rects>
                <_>
                  3 4 8 3 -1.</_>
                <_>
                  5 4 4 3 2.</_></rects>
              <tilted>0</tilted></feature>
            <threshold>-8.9426003396511078e-003</threshold>
            <left_val>-0.4557321071624756</left_val>
            <right_val>0.2936458885669708</right_val></_></_>
        <_>
          <_>
            <feature>
              <rects>
                <_>
                  3 0 17 16 -1.</_>
                <_>
                  3 8 17 8 2.</_></rects>
              <tilted>0</tilted></feature>
            <threshold>0.2656781077384949</threshold>
            <left_node>1</left_node>
            <right_val>0.3290390968322754</right_val></_>
          <_>
            <feature>
              <rects>
                <_>
                  0 12 2 8 -1.</_>
                <_>
                  0 16 2 4 2.</_></rects>
              <tilted>0</tilted></feature>
            <threshold>-5.9100859798491001e-003</threshold>
            <left_val>0.0883812978863716</left_val>
            <right_val>-0.4025407135486603</right_val></_></_>
        <_>
          <_>
            <feature>
              <rects>
                <_>
                  11 6 4 4 -1.</_>
                <_>
                  12 6 2 4 2.</_></rects>
              <tilted>0</tilted></feature>
            <threshold>-7.3312129825353622e-003</threshold>
            <left_val>0.3347798883914948</left_val>
            <right_node>1</right_node></_>
          <_>
            <feature>
              <rects>
                <_>
                  7 7 8 4 -1.</_>
                <_>
                  7 7 8 2 2.</_></rects>
              <tilted>1</tilted></feature>
            <threshold>0.0723280012607574</threshold>
            <left_val>-0.2096153050661087</left_val>
            <right_val>0.4548870921134949</right_val></_></_>
        <_>
          <_>
            <feature>
              <rects>
                <_>
                  9 5 7 15 -1.</_>
                <_>
                  9 10 7 5 3.</_></rects>
              <tilted>0</tilted></feature>
            <threshold>-0.1020788997411728</threshold>
            <left_node>1</left_node>
            <right_val>-0.1322125941514969</right_val></_>
          <_>
            <feature>
              <rects>
                <_>
                  3 9 4 6 -1.</_>
                <_>
                  3 12 4 3 2.</_></rects>
              <tilted>0</tilted></feature>
            <threshold>-0.0103661995381117</threshold>
            <left_val>-0.5860471725463867</left_val>
            <right_val>0.5796589851379395</right_val></_></_>
        <_>
          <_>
            <feature>
              <rects>
                <_>
                  14 5 6 5 -1.</_>
                <_>
                  16 7 2 5 3.</_></rects>
              <tilted>1</tilted></feature>
            <threshold>-0.0623418502509594</threshold>
            <left_val>-0.6641210913658142</left_val>
            <right_node>1</right_node></_>
          <_>
            <feature>
              <rects>
                <_>
                  4 4 5 3 -1.</_>
                <_>
                  3 5 5 1 3.</_></rects>
              <tilted>1</tilted></feature>
            <threshold>-0.0193735398352146</threshold>
            <left_val>-0.7580770850181580</left_val>
            <right_val>0.1213046982884407</right_val></_></_>
        <_>
          <_>
            <feature>
              <rects>
                <_>
                  0 9 16 6 -1.</_>
                <_>
                  0 9 8 3 2.</_>
                <_>
                  8 12 8 3 2.</_></rects>
              <tilted>0</tilted></feature>
            <threshold>0.0394546203315258</threshold>
            <left_node>1</left_node>
            <right_val>0.2861858010292053</right_val></_>
          <_>
            <feature>
              <rects>
                <_>
                  0 5 8 8 -1.</_>
                <_>
                  0 7 8 4 2.</_></rects>
              <tilted>0</tilted></feature>
            <threshold>0.0125510701909661</threshold>
            <left_val>-0.3253627121448517</left_val>
            <right_val>0.1784030944108963</right_val></_></_>
        <_>
          <_>
            <feature>
              <rects>
                <_>
                  11 5 1 9 -1.</_>
                <_>
                  8 8 1 3 3.</_></rects>
              <tilted>1</tilted></feature>
            <threshold>0.0385084711015224</threshold>
            <left_node>1</left_node>
            <right_val>-0.7637745738029480</right_val></_>
          <_>
            <feature>
              <rects>
                <_>
                  9 11 4 1 -1.</_>
                <_>
                  10 12 2 1 2.</_></rects>
              <tilted>1</tilted></feature>
            <threshold>6.5360940061509609e-003</threshold>
            <left_val>0.0941725373268127</left_val>
            <right_val>-0.6187130212783814</right_val></_></_>
        <_>
          <_>
            <feature>
              <rects>
                <_>
                  10 6 6 2 -1.</_>
                <_>
                  12 6 2 2 3.</_></rects>
              <tilted>0</tilted></feature>
            <threshold>0.0269255507737398</threshold>
            <left_node>1</left_node>
            <right_val>0.6590651869773865</right_val></_>
          <_>
            <feature>
              <rects>
                <_>
                  7 17 12 2 -1.</_>
                <_>
                  13 17 6 2 2.</_></rects>
              <tilted>0</tilted></feature>
            <threshold>-0.0258777309209108</threshold>
            <left_val>0.2597379982471466</left_val>
            <right_val>-0.1694196015596390</right_val></_></_>
        <_>
          <_>
            <feature>
              <rects>
                <_>
                  13 18 2 2 -1.</_>
                <_>
                  13 18 1 1 2.</_>
                <_>
                  14 19 1 1 2.</_></rects>
              <tilted>0</tilted></feature>
            <threshold>1.5629039844498038e-003</threshold>
            <left_node>1</left_node>
            <right_val>-0.6716520786285400</right_val></_>
          <_>
            <feature>
              <rects>
                <_>
                  3 0 4 4 -1.</_>
                <_>
                  3 1 4 2 2.</_></rects>
              <tilted>0</tilted></feature>
            <threshold>3.3944871393032372e-004</threshold>
            <left_val>-0.1386183947324753</left_val>
            <right_val>0.2273692041635513</right_val></_></_>
        <_>
          <_>
            <feature>
              <rects>
                <_>
                  14 10 6 8 -1.</_>
                <_>
                  14 10 3 4 2.</_>
                <_>
                  17 14 3 4 2.</_></rects>
              <tilted>0</tilted></feature>
            <threshold>0.0404270589351654</threshold>
            <left_node>1</left_node>
            <right_val>0.4500192999839783</right_val></_>
          <_>
            <feature>
              <rects>
                <_>
                  0 0 17 16 -1.</_>
                <_>
                  0 8 17 8 2.</_></rects>
              <tilted>0</tilted></feature>
            <threshold>-0.3555414974689484</threshold>
            <left_val>0.2914356887340546</left_val>
            <right_val>-0.1954579055309296</right_val></_></_>
        <_>
          <_>
            <feature>
              <rects>
                <_>
                  16 4 4 3 -1.</_>
                <_>
                  15 5 4 1 3.</_></rects>
              <tilted>1</tilted></feature>
            <threshold>0.0452881306409836</threshold>
            <left_node>1</left_node>
            <right_val>0.8380056023597717</right_val></_>
          <_>
            <feature>
              <rects>
                <_>
                  4 6 6 3 -1.</_>
                <_>
                  4 7 6 1 3.</_></rects>
              <tilted>0</tilted></feature>
            <threshold>-0.0175742991268635</threshold>
            <left_val>0.4705669879913330</left_val>
            <right_val>-0.1055200994014740</right_val></_></_>
        <_>
          <_>
            <feature>
              <rects>
                <_>
                  17 12 3 7 -1.</_>
                <_>
                  18 12 1 7 3.</_></rects>
              <tilted>0</tilted></feature>
            <threshold>5.6149181909859180e-003</threshold>
            <left_node>1</left_node>
            <right_val>-0.4252409934997559</right_val></_>
          <_>
            <feature>
              <rects>
                <_>
                  6 11 4 1 -1.</_>
                <_>
                  8 11 2 1 2.</_></rects>
              <tilted>0</tilted></feature>
            <threshold>-2.1727620624005795e-003</threshold>
            <left_val>0.3819329142570496</left_val>
            <right_val>-0.0486489608883858</right_val></_></_>
        <_>
          <_>
            <feature>
              <rects>
                <_>
                  18 12 1 4 -1.</_>
                <_>
                  18 14 1 2 2.</_></rects>
              <tilted>0</tilted></feature>
            <threshold>-2.9598150867968798e-003</threshold>
            <left_val>0.2801531851291657</left_val>
            <right_node>1</right_node></_>
          <_>
            <feature>
              <rects>
                <_>
                  18 7 2 10 -1.</_>
                <_>
                  18 7 1 5 2.</_>
                <_>
                  19 12 1 5 2.</_></rects>
              <tilted>0</tilted></feature>
            <threshold>-5.0065532559528947e-004</threshold>
            <left_val>0.1203669980168343</left_val>
            <right_val>-0.4026528894901276</right_val></_></_>
        <_>
          <_>
            <feature>
              <rects>
                <_>
                  18 14 1 4 -1.</_>
                <_>
                  18 15 1 2 2.</_></rects>
              <tilted>0</tilted></feature>
            <threshold>2.6980708935298026e-004</threshold>
            <left_val>-0.1833302974700928</left_val>
            <right_node>1</right_node></_>
          <_>
            <feature>
              <rects>
                <_>
                  9 14 10 1 -1.</_>
                <_>
                  14 14 5 1 2.</_></rects>
              <tilted>0</tilted></feature>
            <threshold>2.5400810409337282e-003</threshold>
            <left_val>-0.0695781633257866</left_val>
            <right_val>0.4170063138008118</right_val></_></_>
        <_>
          <_>
            <feature>
              <rects>
                <_>
                  2 10 4 2 -1.</_>
                <_>
                  3 10 2 2 2.</_></rects>
              <tilted>0</tilted></feature>
            <threshold>-4.1480059735476971e-003</threshold>
            <left_val>-0.6103448867797852</left_val>
            <right_node>1</right_node></_>
          <_>
            <feature>
              <rects>
                <_>
                  11 8 2 4 -1.</_>
                <_>
                  11 8 1 2 2.</_>
                <_>
                  12 10 1 2 2.</_></rects>
              <tilted>0</tilted></feature>
            <threshold>-4.2383489198982716e-003</threshold>
            <left_val>0.4447737932205200</left_val>
            <right_val>-0.0273950491100550</right_val></_></_>
        <_>
          <_>
            <feature>
              <rects>
                <_>
                  4 0 12 11 -1.</_>
                <_>
                  8 0 4 11 3.</_></rects>
              <tilted>0</tilted></feature>
            <threshold>-0.1018956005573273</threshold>
            <left_val>-0.6099901199340820</left_val>
            <right_node>1</right_node></_>
          <_>
            <feature>
              <rects>
                <_>
                  11 1 6 2 -1.</_>
                <_>
                  11 1 3 2 2.</_></rects>
              <tilted>1</tilted></feature>
            <threshold>-0.0348078012466431</threshold>
            <left_val>0.4990178942680359</left_val>
            <right_val>-0.0226245000958443</right_val></_></_>
        <_>
          <_>
            <feature>
              <rects>
                <_>
                  13 7 3 3 -1.</_>
                <_>
                  12 8 3 1 3.</_></rects>
              <tilted>1</tilted></feature>
            <threshold>0.0206286199390888</threshold>
            <left_node>1</left_node>
            <right_val>0.5731418728828430</right_val></_>
          <_>
            <feature>
              <rects>
                <_>
                  0 5 8 8 -1.</_>
                <_>
                  4 5 4 8 2.</_></rects>
              <tilted>0</tilted></feature>
            <threshold>-0.0166717506945133</threshold>
            <left_val>0.1669640988111496</left_val>
            <right_val>-0.2206875979900360</right_val></_></_></trees>
      <stage_threshold>-1.4114589691162109</stage_threshold>
      <parent>4</parent>
      <next>-1</next></_>
    <_>
      <trees>
        <_>
          <_>
            <feature>
              <rects>
                <_>
                  10 7 8 2 -1.</_>
                <_>
                  12 7 4 2 2.</_></rects>
              <tilted>0</tilted></feature>
            <threshold>0.0125863198190928</threshold>
            <left_node>1</left_node>
            <right_val>0.4187878966331482</right_val></_>
          <_>
            <feature>
              <rects>
                <_>
                  9 7 6 6 -1.</_>
                <_>
                  9 7 6 3 2.</_></rects>
              <tilted>1</tilted></feature>
            <threshold>-0.0924237892031670</threshold>
            <left_val>0.4203304946422577</left_val>
            <right_val>-0.2790394127368927</right_val></_></_>
        <_>
          <_>
            <feature>
              <rects>
                <_>
                  16 0 3 2 -1.</_>
                <_>
                  16 1 3 1 2.</_></rects>
              <tilted>0</tilted></feature>
            <threshold>1.8730260489974171e-004</threshold>
            <left_val>-0.2747915983200073</left_val>
            <right_node>1</right_node></_>
          <_>
            <feature>
              <rects>
                <_>
                  0 4 7 2 -1.</_>
                <_>
                  0 5 7 1 2.</_></rects>
              <tilted>0</tilted></feature>
            <threshold>-4.3279780074954033e-003</threshold>
            <left_val>-0.3769063055515289</left_val>
            <right_val>0.2900345921516419</right_val></_></_>
        <_>
          <_>
            <feature>
              <rects>
                <_>
                  9 10 6 4 -1.</_>
                <_>
                  9 10 6 2 2.</_></rects>
              <tilted>1</tilted></feature>
            <threshold>0.0325934290885925</threshold>
            <left_node>1</left_node>
            <right_val>0.2981717884540558</right_val></_>
          <_>
            <feature>
              <rects>
                <_>
                  7 7 5 8 -1.</_>
                <_>
                  7 11 5 4 2.</_></rects>
              <tilted>0</tilted></feature>
            <threshold>-0.0565290600061417</threshold>
            <left_val>0.2336626946926117</left_val>
            <right_val>-0.3581981956958771</right_val></_></_>
        <_>
          <_>
            <feature>
              <rects>
                <_>
                  3 6 16 6 -1.</_>
                <_>
                  7 6 8 6 2.</_></rects>
              <tilted>0</tilted></feature>
            <threshold>-0.0484599396586418</threshold>
            <left_node>1</left_node>
            <right_val>-0.1347219944000244</right_val></_>
          <_>
            <feature>
              <rects>
                <_>
                  0 0 4 2 -1.</_>
                <_>
                  0 1 4 1 2.</_></rects>
              <tilted>0</tilted></feature>
            <threshold>3.1399101135320961e-004</threshold>
            <left_val>-0.2640309035778046</left_val>
            <right_val>0.5536838173866272</right_val></_></_>
        <_>
          <_>
            <feature>
              <rects>
                <_>
                  12 3 4 6 -1.</_>
                <_>
                  12 3 2 6 2.</_></rects>
              <tilted>1</tilted></feature>
            <threshold>-0.0427782982587814</threshold>
            <left_val>0.4376359879970551</left_val>
            <right_node>1</right_node></_>
          <_>
            <feature>
              <rects>
                <_>
                  14 18 2 2 -1.</_>
                <_>
                  15 18 1 2 2.</_></rects>
              <tilted>0</tilted></feature>
            <threshold>2.5004649069160223e-003</threshold>
            <left_val>-0.0269302800297737</left_val>
            <right_val>-0.8072270154953003</right_val></_></_>
        <_>
          <_>
            <feature>
              <rects>
                <_>
                  4 7 5 3 -1.</_>
                <_>
                  4 8 5 1 3.</_></rects>
              <tilted>0</tilted></feature>
            <threshold>-0.0159163195639849</threshold>
            <left_val>0.5090860724449158</left_val>
            <right_node>1</right_node></_>
          <_>
            <feature>
              <rects>
                <_>
                  19 10 1 6 -1.</_>
                <_>
                  19 13 1 3 2.</_></rects>
              <tilted>0</tilted></feature>
            <threshold>0.0123704997822642</threshold>
            <left_val>-0.1395395994186401</left_val>
            <right_val>0.4618979990482330</right_val></_></_>
        <_>
          <_>
            <feature>
              <rects>
                <_>
                  4 0 16 2 -1.</_>
                <_>
                  4 0 8 2 2.</_></rects>
              <tilted>1</tilted></feature>
            <threshold>0.1925424933433533</threshold>
            <left_node>1</left_node>
            <right_val>0.7068117260932922</right_val></_>
          <_>
            <feature>
              <rects>
                <_>
                  0 7 10 3 -1.</_>
                <_>
                  0 8 10 1 3.</_></rects>
              <tilted>0</tilted></feature>
            <threshold>0.0120795201510191</threshold>
            <left_val>-0.1750192046165466</left_val>
            <right_val>0.2807545065879822</right_val></_></_>
        <_>
          <_>
            <feature>
              <rects>
                <_>
                  1 2 4 4 -1.</_>
                <_>
                  1 3 4 2 2.</_></rects>
              <tilted>0</tilted></feature>
            <threshold>-3.8368639070540667e-003</threshold>
            <left_val>-0.3639206886291504</left_val>
            <right_node>1</right_node></_>
          <_>
            <feature>
              <rects>
                <_>
                  6 17 4 1 -1.</_>
                <_>
                  7 17 2 1 2.</_></rects>
              <tilted>0</tilted></feature>
            <threshold>-2.3880379740148783e-003</threshold>
            <left_val>-0.6462655067443848</left_val>
            <right_val>0.1542944014072418</right_val></_></_>
        <_>
          <_>
            <feature>
              <rects>
                <_>
                  7 7 8 5 -1.</_>
                <_>
                  9 9 4 5 2.</_></rects>
              <tilted>1</tilted></feature>
            <threshold>-0.0741371363401413</threshold>
            <left_val>-0.8576728105545044</left_val>
            <right_node>1</right_node></_>
          <_>
            <feature>
              <rects>
                <_>
                  12 0 5 9 -1.</_>
                <_>
                  9 3 5 3 3.</_></rects>
              <tilted>1</tilted></feature>
            <threshold>-0.1398240029811859</threshold>
            <left_val>-0.8633775711059570</left_val>
            <right_val>0.0697820931673050</right_val></_></_>
        <_>
          <_>
            <feature>
              <rects>
                <_>
                  15 6 5 3 -1.</_>
                <_>
                  14 7 5 1 3.</_></rects>
              <tilted>1</tilted></feature>
            <threshold>-8.0924471840262413e-003</threshold>
            <left_val>0.2121247053146362</left_val>
            <right_node>1</right_node></_>
          <_>
            <feature>
              <rects>
                <_>
                  9 7 4 5 -1.</_>
                <_>
                  11 7 2 5 2.</_></rects>
              <tilted>0</tilted></feature>
            <threshold>-5.5880229920148849e-003</threshold>
            <left_val>0.0925113633275032</left_val>
            <right_val>-0.3991782963275909</right_val></_></_>
        <_>
          <_>
            <feature>
              <rects>
                <_>
                  7 7 12 8 -1.</_>
                <_>
                  11 7 4 8 3.</_></rects>
              <tilted>0</tilted></feature>
            <threshold>-0.1245758011937141</threshold>
            <left_val>-0.6586145162582398</left_val>
            <right_node>1</right_node></_>
          <_>
            <feature>
              <rects>
                <_>
                  16 15 4 1 -1.</_>
                <_>
                  17 16 2 1 2.</_></rects>
              <tilted>1</tilted></feature>
            <threshold>-1.8839479889720678e-004</threshold>
            <left_val>-0.1745963990688324</left_val>
            <right_val>0.1974228024482727</right_val></_></_>
        <_>
          <_>
            <feature>
              <rects>
                <_>
                  15 9 3 2 -1.</_>
                <_>
                  15 9 3 1 2.</_></rects>
              <tilted>1</tilted></feature>
            <threshold>9.4769923016428947e-003</threshold>
            <left_node>1</left_node>
            <right_val>0.3550826907157898</right_val></_>
          <_>
            <feature>
              <rects>
                <_>
                  0 14 4 6 -1.</_>
                <_>
                  0 16 4 2 3.</_></rects>
              <tilted>0</tilted></feature>
            <threshold>-3.1992050353437662e-003</threshold>
            <left_val>-0.4462639093399048</left_val>
            <right_val>0.0386306084692478</right_val></_></_>
        <_>
          <_>
            <feature>
              <rects>
                <_>
                  8 16 4 3 -1.</_>
                <_>
                  9 16 2 3 2.</_></rects>
              <tilted>0</tilted></feature>
            <threshold>-7.6757459901273251e-003</threshold>
            <left_val>-0.6997349858283997</left_val>
            <right_node>1</right_node></_>
          <_>
            <feature>
              <rects>
                <_>
                  13 4 6 2 -1.</_>
                <_>
                  13 4 3 2 2.</_></rects>
              <tilted>1</tilted></feature>
            <threshold>0.0423089601099491</threshold>
            <left_val>0.0865382701158524</left_val>
            <right_val>-0.5602024197578430</right_val></_></_>
        <_>
          <_>
            <feature>
              <rects>
                <_>
                  10 6 6 5 -1.</_>
                <_>
                  12 6 2 5 3.</_></rects>
              <tilted>0</tilted></feature>
            <threshold>0.0259084291756153</threshold>
            <left_node>1</left_node>
            <right_val>0.4250248968601227</right_val></_>
          <_>
            <feature>
              <rects>
                <_>
                  11 6 4 4 -1.</_>
                <_>
                  12 6 2 4 2.</_></rects>
              <tilted>0</tilted></feature>
            <threshold>-3.0191780533641577e-003</threshold>
            <left_val>0.1274437010288239</left_val>
            <right_val>-0.3028624951839447</right_val></_></_>
        <_>
          <_>
            <feature>
              <rects>
                <_>
                  0 0 12 1 -1.</_>
                <_>
                  3 0 6 1 2.</_></rects>
              <tilted>0</tilted></feature>
            <threshold>5.7786201068665832e-005</threshold>
            <left_val>-0.2125007063150406</left_val>
            <right_node>1</right_node></_>
          <_>
            <feature>
              <rects>
                <_>
                  4 0 6 8 -1.</_>
                <_>
                  7 0 3 8 2.</_></rects>
              <tilted>0</tilted></feature>
            <threshold>0.0101964501664042</threshold>
            <left_val>0.2552083134651184</left_val>
            <right_val>-0.2859086096286774</right_val></_></_>
        <_>
          <_>
            <feature>
              <rects>
                <_>
                  7 3 4 3 -1.</_>
                <_>
